{"learner":{"attributes":{"scikit_learn":"{\"_estimator_type\": \"regressor\"}"},"feature_names":[],"feature_types":[],"gradient_booster":{"model":{"cats":{"enc":[],"feature_segments":[],"sorted_idx":[]},"gbtree_model_param":{"num_parallel_tree":"1","num_trees":"250"},"iteration_indptr":[0,1,2,3,4,5,6,7,8,9,10,11,12,13,14,15,16,17,18,19,20,21,22,23,24,25,26,27,28,29,30,31,32,33,34,35,36,37,38,39,40,41,42,43,44,45,46,47,48,49,50,51,52,53,54,55,56,57,58,59,60,61,62,63,64,65,66,67,68,69,70,71,72,73,74,75,76,77,78,79,80,81,82,83,84,85,86,87,88,89,90,91,92,93,94,95,96,97,98,99,100,101,102,103,104,105,106,107,108,109,110,111,112,113,114,115,116,117,118,119,120,121,122,123,124,125,126,127,128,129,130,131,132,133,134,135,136,137,138,139,140,141,142,143,144,145,146,147,148,149,150,151,152,153,154,155,156,157,158,159,160,161,162,163,164,165,166,167,168,169,170,171,172,173,174,175,176,177,178,179,180,181,182,183,184,185,186,187,188,189,190,191,192,193,194,195,196,197,198,199,200,201,202,203,204,205,206,207,208,209,210,211,212,213,214,215,216,217,218,219,220,221,222,223,224,225,226,227,228,229,230,231,232,233,234,235,236,237,238,239,240,241,242,243,244,245,246,247,248,249,250],"tree_info":[0,0,0,0,0,0,0,0,0,0,0,0,0,0,0,0,0,0,0,0,0,0,0,0,0,0,0,0,0,0,0,0,0,0,0,0,0,0,0,0,0,0,0,0,0,0,0,0,0,0,0,0,0,0,0,0,0,0,0,0,0,0,0,0,0,0,0,0,0,0,0,0,0,0,0,0,0,0,0,0,0,0,0,0,0,0,0,0,0,0,0,0,0,0,0,0,0,0,0,0,0,0,0,0,0,0,0,0,0,0,0,0,0,0,0,0,0,0,0,0,0,0,0,0,0,0,0,0,0,0,0,0,0,0,0,0,0,0,0,0,0,0,0,0,0,0,0,0,0,0,0,0,0,0,0,0,0,0,0,0,0,0,0,0,0,0,0,0,0,0,0,0,0,0,0,0,0,0,0,0,0,0,0,0,0,0,0,0,0,0,0,0,0,0,0,0,0,0,0,0,0,0,0,0,0,0,0,0,0,0,0,0,0,0,0,0,0,0,0,0,0,0,0,0,0,0,0,0,0,0,0,0,0,0,0,0,0,0,0,0,0,0,0,0,0,0,0,0,0,0],"trees":[{"base_weights":[1.9642888E-1,8.633907E0,-2.4358084E0,4.4401317E0,5.2091072E1,-3.8470964E0,2.3181183E1,4.7529066E-1,2.1833197E1,2.2727947E0,1.6960623E1,-2.9845817E0,-1.93674E1,4.061478E1,-1.1283047E1,-1.4623614E1,3.236367E0,4.0626118E-1,2.5668465E1,4.0105224E0,8.464398E-1,-4.9329014E0,1.3161155E0,-2.5221968E1,-6.9409485E0,1.2862793E0,8.2399845E-1,-1.8488608E-1,-4.6953058E-1,-5.401263E-1,-1.11968644E-1,3.826175E-2,6.386041E-1,9.645521E-1,6.5555346E-1,5.3521883E-2,1.5592454E-1,-1.7724568E-1,2.1289212E-1,1.9201592E-1,-2.7726406E-1,-8.9112175E-1,-6.4408815E-1,3.757176E-2,-4.073734E-1],"categories":[],"categories_nodes":[],"categories_segments":[],"categories_sizes":[],"default_left":[0,0,0,0,0,0,0,0,0,0,0,0,0,0,0,0,0,0,0,0,0,0,0,0,0,0,0,0,0,0,0,0,0,0,0,0,0,0,0,0,0,0,0,0,0],"id":0,"left_children":[1,3,5,7,9,11,13,15,17,-1,19,21,23,25,27,29,31,-1,33,35,-1,37,39,41,43,-1,-1,-1,-1,-1,-1,-1,-1,-1,-1,-1,-1,-1,-1,-1,-1,-1,-1,-1,-1],"loss_changes":[4.6794125E4,9.1075766E4,5.815081E4,3.1573643E4,3.530079E4,2.0329822E4,5.0928438E4,1.5639099E4,2.3552969E3,0E0,2.6559214E3,1.2105961E4,5.6450547E3,4.8725E2,5.52124E2,2.0683154E3,1.1193529E4,0E0,7.078672E2,1.7154602E1,0E0,1.170357E4,2.4269977E4,2.7046094E2,1.4855028E3,0E0,0E0,0E0,0E0,0E0,0E0,0E0,0E0,0E0,0E0,0E0,0E0,0E0,0E0,0E0,0E0,0E0,0E0,0E0,0E0],"parents":[2147483647,0,0,1,1,2,2,3,3,4,4,5,5,6,6,7,7,8,8,10,10,11,11,12,12,13,13,14,14,15,15,16,16,18,18,19,19,21,21,22,22,23,23,24,24],"right_children":[2,4,6,8,10,12,14,16,18,-1,20,22,24,26,28,30,32,-1,34,36,-1,38,40,42,44,-1,-1,-1,-1,-1,-1,-1,-1,-1,-1,-1,-1,-1,-1,-1,-1,-1,-1,-1,-1],"split_conditions":[-7.249884E-1,1.9847673E0,2.2182875E0,1.3638381E0,-9.282578E-1,1.8999249E0,1.3638381E0,-1.2255796E0,-6.855612E-1,2.2727947E0,-8.799548E-1,1.3638381E0,1.3638381E0,3.0094404E0,2.7412395E0,-4.7918636E-1,7.660261E-1,4.0626118E-1,-1.3128716E0,-5.546389E-1,8.464398E-1,1.3280721E0,9.1662437E-1,1.9847673E0,1.9847673E0,1.2862793E0,8.2399845E-1,-1.8488608E-1,-4.6953058E-1,-5.401263E-1,-1.11968644E-1,3.826175E-2,6.386041E-1,9.645521E-1,6.5555346E-1,5.3521883E-2,1.5592454E-1,-1.7724568E-1,2.1289212E-1,1.9201592E-1,-2.7726406E-1,-8.9112175E-1,-6.4408815E-1,3.757176E-2,-4.073734E-1],"split_indices":[7,1,7,4,7,1,4,7,2,0,0,4,4,7,0,4,2,0,0,5,0,0,0,1,1,0,0,0,0,0,0,0,0,0,0,0,0,0,0,0,0,0,0,0,0],"split_type":[0,0,0,0,0,0,0,0,0,0,0,0,0,0,0,0,0,0,0,0,0,0,0,0,0,0,0,0,0,0,0,0,0,0,0,0,0,0,0,0,0,0,0,0,0],"sum_hessian":[2.105E3,5E2,1.605E3,4.57E2,4.3E1,1.522E3,8.3E1,3.73E2,8.4E1,2.5E1,1.8E1,1.443E3,7.9E1,5.5E1,2.8E1,5.7E1,3.16E2,2.8E1,5.6E1,9E0,9E0,9.93E2,4.5E2,5.3E1,2.6E1,4.5E1,1E1,1.4E1,1.4E1,4.3E1,1.4E1,2.86E2,3E1,1.8E1,3.8E1,4E0,5E0,9.19E2,7.4E1,3.04E2,1.46E2,2.1E1,3.2E1,1.2E1,1.4E1],"tree_param":{"num_deleted":"0","num_feature":"8","num_nodes":"45","size_leaf_vector":"1"}},{"base_weights":[-1.1728732E-1,8.267771E0,-2.6180232E0,4.4245734E0,5.6932117E1,-3.8145363E0,1.8963057E1,2.9592186E-1,2.1072039E1,7.554764E1,1.818562E1,-4.70445E0,1.0671368E1,3.829024E1,-1.0845626E1,-1.4153044E1,3.1005886E0,4.0627593E-1,2.4553066E1,2.4671674E0,1.4264692E0,1.1143781E-1,8.029706E-1,-3.8678532E0,-1.6437098E1,2.1038607E1,3.503018E0,1.2432318E0,8.2636297E-1,-4.759354E-1,-1.7352657E-1,-5.486486E-1,-1.0464383E-1,1.6824791E-1,-3.1955203E-1,6.3862747E-1,9.1953313E-1,1.12683205E-2,-1.5685672E-1,-6.893259E-1,-2.6553437E-1,3.8976553E-1,7.611465E-1,-1.06777065E-1,2.4957126E-1],"categories":[],"categories_nodes":[],"categories_segments":[],"categories_sizes":[],"default_left":[0,0,0,0,0,0,0,0,0,0,0,0,0,0,0,0,0,0,0,0,0,0,0,0,0,0,0,0,0,0,0,0,0,0,0,0,0,0,0,0,0,0,0,0,0],"id":1,"left_children":[1,3,5,7,9,11,13,15,17,19,21,23,25,27,29,31,33,-1,35,-1,-1,-1,-1,37,39,41,43,-1,-1,-1,-1,-1,-1,-1,-1,-1,-1,-1,-1,-1,-1,-1,-1,-1,-1],"loss_changes":[4.4999754E4,9.195226E4,4.2756176E4,3.1472828E4,2.4592414E4,2.0250723E4,5.0537547E4,1.4956909E4,2.0526367E3,5.859375E2,1.514687E3,1.4433914E4,6.6890557E3,6.527969E2,7.973281E2,2.582329E3,1.0716023E4,0E0,5.6221094E2,0E0,0E0,0E0,0E0,7.9702227E3,4.6589336E3,9.603613E2,1.9002688E3,0E0,0E0,0E0,0E0,0E0,0E0,0E0,0E0,0E0,0E0,0E0,0E0,0E0,0E0,0E0,0E0,0E0,0E0],"parents":[2147483647,0,0,1,1,2,2,3,3,4,4,5,5,6,6,7,7,8,8,9,9,10,10,11,11,12,12,13,13,14,14,15,15,16,16,18,18,23,23,24,24,25,25,26,26],"right_children":[2,4,6,8,10,12,14,16,18,20,22,24,26,28,30,32,34,-1,36,-1,-1,-1,-1,38,40,42,44,-1,-1,-1,-1,-1,-1,-1,-1,-1,-1,-1,-1,-1,-1,-1,-1,-1,-1],"split_conditions":[-7.249884E-1,1.9847673E0,2.2182875E0,1.3638381E0,-2.8119799E-2,2.2879543E0,1.3638381E0,-1.2255796E0,-6.855612E-1,-4.7918636E-1,3.0198455E0,1.8999249E0,-3.9011467E-1,3.0094404E0,-9.3169236E-1,-4.7918636E-1,1.6842836E0,4.0627593E-1,-2.2530179E-1,2.4671674E0,1.4264692E0,1.1143781E-1,8.029706E-1,-4.4486076E-1,1.3638381E0,1.3638381E0,1.3638381E0,1.2432318E0,8.2636297E-1,-4.759354E-1,-1.7352657E-1,-5.486486E-1,-1.0464383E-1,1.6824791E-1,-3.1955203E-1,6.3862747E-1,9.1953313E-1,1.12683205E-2,-1.5685672E-1,-6.893259E-1,-2.6553437E-1,3.8976553E-1,7.611465E-1,-1.06777065E-1,2.4957126E-1],"split_indices":[7,1,7,4,6,6,4,7,2,4,1,1,1,7,1,4,1,0,2,0,0,0,0,6,4,4,4,0,0,0,0,0,0,0,0,0,0,0,0,0,0,0,0,0,0],"split_type":[0,0,0,0,0,0,0,0,0,0,0,0,0,0,0,0,0,0,0,0,0,0,0,0,0,0,0,0,0,0,0,0,0,0,0,0,0,0,0,0,0,0,0,0,0],"sum_hessian":[2.144E3,4.92E2,1.652E3,4.57E2,3.5E1,1.566E3,8.6E1,3.67E2,9E1,2.3E1,1.2E1,1.476E3,9E1,5.2E1,3.4E1,5.9E1,3.08E2,3E1,6E1,1.7E1,6E0,5E0,7E0,1.379E3,9.7E1,3.6E1,5.4E1,3.8E1,1.4E1,1.6E1,1.8E1,4.2E1,1.7E1,2.61E2,4.7E1,4.2E1,1.8E1,3.35E2,1.044E3,5.1E1,4.6E1,1.4E1,2.2E1,2.2E1,3.2E1],"tree_param":{"num_deleted":"0","num_feature":"8","num_nodes":"45","size_leaf_vector":"1"}},{"base_weights":[-2.7681473E-1,-1.1687708E0,2.1993862E1,7.076275E0,-3.7081141E0,1.1361179E0,-9.970545E0,1.1367414E0,1.7721268E1,-5.1984262E0,9.492333E0,-1.7210695E-1,-4.421966E-1,-4.7214484E0,1.45750675E1,2.403649E0,1.4715894E1,2.3441833E-2,-6.8341002E0,6.622721E-1,1.7401329E1,-3.0212158E-2,-6.892077E-1,1.8514259E0,1.5937209E-1,2.680103E-1,6.786802E-1,-3.144177E-1,1.16408974E-1,-9.032974E-1,-1.8280932E-1,-5.931802E-2,2.730518E-1,7.596404E-1,3.699879E-1],"categories":[],"categories_nodes":[],"categories_segments":[],"categories_sizes":[],"default_left":[0,0,0,0,0,0,0,0,0,0,0,0,0,0,0,0,0,0,0,0,0,0,0,0,0,0,0,0,0,0,0,0,0,0,0],"id":2,"left_children":[1,3,5,7,9,-1,11,13,15,17,19,-1,-1,21,23,-1,25,27,29,31,33,-1,-1,-1,-1,-1,-1,-1,-1,-1,-1,-1,-1,-1,-1],"loss_changes":[4.384672E4,4.445456E4,4.3514277E4,3.1593002E4,3.1978285E4,0E0,5.009983E2,2.541803E4,3.238995E4,1.2461875E4,1.1511569E4,0E0,0E0,1.52308125E4,4.2462277E4,0E0,7.6615156E3,1.4179549E4,1.8964297E4,1.7778221E3,3.1800488E3,0E0,0E0,0E0,0E0,0E0,0E0,0E0,0E0,0E0,0E0,0E0,0E0,0E0,0E0],"parents":[2147483647,0,0,1,1,2,2,3,3,4,4,6,6,7,7,8,8,9,9,10,10,13,13,14,14,16,16,17,17,18,18,19,19,20,20],"right_children":[2,4,6,8,10,-1,12,14,16,18,20,-1,-1,22,24,-1,26,28,30,32,34,-1,-1,-1,-1,-1,-1,-1,-1,-1,-1,-1,-1,-1,-1],"split_conditions":[2.2182875E0,-7.249884E-1,1.3638381E0,-7.840299E-2,1.7180781E0,1.1361179E0,2.7412395E0,-8.9889807E-1,-2.8119799E-2,-4.4486076E-1,-7.897071E-2,-1.7210695E-1,-4.421966E-1,-9.400681E-1,-8.799548E-1,2.403649E0,4.2900008E-1,-1.1160651E0,-4.7918636E-1,4.165193E0,-1.9774473E-1,-3.0212158E-2,-6.892077E-1,1.8514259E0,1.5937209E-1,2.680103E-1,6.786802E-1,-3.144177E-1,1.16408974E-1,-9.032974E-1,-1.8280932E-1,-5.931802E-2,2.730518E-1,7.596404E-1,3.699879E-1],"split_indices":[7,7,4,6,6,0,0,0,6,6,7,0,0,0,0,0,6,6,4,6,0,0,0,0,0,0,0,0,0,0,0,0,0,0,0],"split_type":[0,0,0,0,0,0,0,0,0,0,0,0,0,0,0,0,0,0,0,0,0,0,0,0,0,0,0,0,0,0,0,0,0,0,0],"sum_hessian":[2.205E3,2.121E3,8.4E1,4.99E2,1.622E3,5.6E1,2.8E1,3.21E2,1.78E2,1.458E3,1.64E2,1.6E1,1.2E1,2.24E2,9.7E1,7E0,1.71E2,3.48E2,1.11E3,7.8E1,8.6E1,1.87E2,3.7E1,1.5E1,8.2E1,1E2,7.1E1,9.3E1,2.55E2,3.3E1,1.077E3,6E1,1.8E1,3.2E1,5.4E1],"tree_param":{"num_deleted":"0","num_feature":"8","num_nodes":"35","size_leaf_vector":"1"}},{"base_weights":[-5.293692E-4,-9.2053723E-1,2.4945845E1,7.0953627E0,-3.3036096E0,3.592901E1,-1.1050769E1,-1.4018013E1,1.0052422E1,-4.4900193E0,7.5567164E0,1.1548285E0,8.1527996E-1,-4.1846967E-1,-4.089679E0,-5.963598E-1,-7.8942256E0,8.07007E0,2.9516525E1,-3.0805745E0,-1.2664893E1,-1.6156667E0,1.7337786E1,-1.6426814E-1,-1.2497267E-2,-3.3791146E-1,-8.994454E-2,5.0399333E-1,1.2009185E-1,2.0976589E0,6.8702966E-1,6.940607E-2,-1.3912672E-1,-5.794521E-1,-1.8600525E-1,-4.5704004E-1,6.988304E-2,7.598136E-1,3.7071648E-1],"categories":[],"categories_nodes":[],"categories_segments":[],"categories_sizes":[],"default_left":[0,0,0,0,0,0,0,0,0,0,0,0,0,0,0,0,0,0,0,0,0,0,0,0,0,0,0,0,0,0,0,0,0,0,0,0,0,0,0],"id":3,"left_children":[1,3,5,7,9,11,13,15,17,19,21,-1,-1,-1,23,-1,25,27,29,31,33,35,37,-1,-1,-1,-1,-1,-1,-1,-1,-1,-1,-1,-1,-1,-1,-1,-1],"loss_changes":[5.033125E4,4.0425164E4,3.1234867E4,3.0421162E4,2.1049033E4,3.011172E2,3.2627417E2,1.9964346E3,1.6198883E4,1.6909896E4,1.4472243E4,0E0,0E0,0E0,3.3353523E1,0E0,4.7764502E2,1.3708223E4,8.823559E3,1.0559292E4,9.166414E3,4.5486694E3,2.7907578E3,0E0,0E0,0E0,0E0,0E0,0E0,0E0,0E0,0E0,0E0,0E0,0E0,0E0,0E0,0E0,0E0],"parents":[2147483647,0,0,1,1,2,2,3,3,4,4,5,5,6,6,7,7,8,8,9,9,10,10,14,14,16,16,17,17,18,18,19,19,20,20,21,21,22,22],"right_children":[2,4,6,8,10,12,14,16,18,20,22,-1,-1,-1,24,-1,26,28,30,32,34,36,38,-1,-1,-1,-1,-1,-1,-1,-1,-1,-1,-1,-1,-1,-1,-1,-1],"split_conditions":[2.2182875E0,-7.249884E-1,1.3638381E0,-1.2255796E0,1.7180781E0,3.0094404E0,-1.0750114E0,-1.2993774E0,7.660261E-1,7.660261E-1,-7.897071E-2,1.1548285E0,8.1527996E-1,-4.1846967E-1,9.6953845E-1,-5.963598E-1,-4.7918636E-1,-1.0517011E0,-2.8119799E-2,7.372098E-2,1.1664869E0,1.5449265E0,1.7317355E-1,-1.6426814E-1,-1.2497267E-2,-3.3791146E-1,-8.994454E-2,5.0399333E-1,1.2009185E-1,2.0976589E0,6.8702966E-1,6.940607E-2,-1.3912672E-1,-5.794521E-1,-1.8600525E-1,-4.5704004E-1,6.988304E-2,7.598136E-1,3.7071648E-1],"split_indices":[7,7,4,7,6,7,2,7,2,2,7,0,0,0,5,0,4,7,6,4,6,2,7,0,0,0,0,0,0,0,0,0,0,0,0,0,0,0,0],"split_type":[0,0,0,0,0,0,0,0,0,0,0,0,0,0,0,0,0,0,0,0,0,0,0,0,0,0,0,0,0,0,0,0,0,0,0,0,0,0,0],"sum_hessian":[2.191E3,2.114E3,7.7E1,4.84E2,1.63E3,5.9E1,1.8E1,5.9E1,4.25E2,1.47E3,1.6E2,4.3E1,1.6E1,1.2E1,6E0,2.9E1,3E1,3.87E2,3.8E1,1.255E3,2.15E2,8.3E1,7.7E1,4E0,2E0,1.7E1,1.3E1,1.22E2,2.65E2,4E0,3.4E1,2.81E2,9.74E2,1.05E2,1.1E2,1.8E1,6.5E1,2.8E1,4.9E1],"tree_param":{"num_deleted":"0","num_feature":"8","num_nodes":"39","size_leaf_vector":"1"}},{"base_weights":[4.272489E-1,-5.3012747E-1,2.1847828E1,7.1769733E0,-2.992055E0,3.6396584E1,-9.362396E0,3.9389837E0,5.147115E1,-1.9659274E0,-1.7406597E1,1.2133529E0,9.373542E-1,-1.5088008E-1,-4.0947112E-1,3.3763736E-1,1.9369614E1,6.949646E1,1.56209E1,-4.2006083E0,2.5252E0,-2.3505276E1,-8.48163E0,-1.0986229E-1,3.176514E-1,3.6501274E-1,6.8137133E-1,2.3013456E0,1.391378E0,1.2576486E-1,7.445424E-1,-1.6171193E-1,2.2613299E-1,3.551897E-1,-1.3045555E-1,-4.7266504E-1,-7.619387E-1,5.558342E-2,-3.9625654E-1],"categories":[],"categories_nodes":[],"categories_segments":[],"categories_sizes":[],"default_left":[0,0,0,0,0,0,0,0,0,0,0,0,0,0,0,0,0,0,0,0,0,0,0,0,0,0,0,0,0,0,0,0,0,0,0,0,0,0,0],"id":4,"left_children":[1,3,5,7,9,11,13,15,17,19,21,-1,-1,-1,-1,23,25,27,29,31,33,35,37,-1,-1,-1,-1,-1,-1,-1,-1,-1,-1,-1,-1,-1,-1,-1,-1],"loss_changes":[4.553836E4,4.0360887E4,4.3477402E4,7.3660664E4,2.3809123E4,9.190625E1,5.071565E2,2.6723133E4,2.1531812E4,1.5125178E4,5.624705E3,0E0,0E0,0E0,0E0,1.606979E4,1.9146055E3,2.7839062E2,1.2624167E3,1.4090631E4,3.2127986E4,5.2391406E2,2.2227202E3,0E0,0E0,0E0,0E0,0E0,0E0,0E0,0E0,0E0,0E0,0E0,0E0,0E0,0E0,0E0,0E0],"parents":[2147483647,0,0,1,1,2,2,3,3,4,4,5,5,6,6,7,7,8,8,9,9,10,10,15,15,16,16,17,17,18,18,19,19,20,20,21,21,22,22],"right_children":[2,4,6,8,10,12,14,16,18,20,22,-1,-1,-1,-1,24,26,28,30,32,34,36,38,-1,-1,-1,-1,-1,-1,-1,-1,-1,-1,-1,-1,-1,-1,-1,-1],"split_conditions":[2.2182875E0,-7.249884E-1,1.3638381E0,1.9847673E0,1.8999249E0,2.7412395E0,2.7412395E0,1.3638381E0,-9.282578E-1,1.3638381E0,1.3638381E0,1.2133529E0,9.373542E-1,-1.5088008E-1,-4.0947112E-1,-7.678107E-1,-6.855612E-1,-4.7918636E-1,-8.799548E-1,1.3280721E0,-1.4265746E-1,-8.799548E-1,1.9847673E0,-1.0986229E-1,3.176514E-1,3.6501274E-1,6.8137133E-1,2.3013456E0,1.391378E0,1.2576486E-1,7.445424E-1,-1.6171193E-1,2.2613299E-1,3.551897E-1,-1.3045555E-1,-4.7266504E-1,-7.619387E-1,5.558342E-2,-3.9625654E-1],"split_indices":[7,7,4,1,1,0,0,4,7,4,4,0,0,0,0,0,2,4,0,0,1,0,1,0,0,0,0,0,0,0,0,0,0,0,0,0,0,0,0],"split_type":[0,0,0,0,0,0,0,0,0,0,0,0,0,0,0,0,0,0,0,0,0,0,0,0,0,0,0,0,0,0,0,0,0,0,0,0,0,0,0],"sum_hessian":[2.219E3,2.125E3,9.4E1,5.14E2,1.611E3,6.4E1,3E1,4.8E2,3.4E1,1.505E3,1.06E2,3.2E1,3.2E1,1.6E1,1.4E1,3.9E2,9E1,2.2E1,1.2E1,1.005E3,5E2,6.2E1,4.4E1,2.81E2,1.09E2,3E1,6E1,1.5E1,7E0,6E0,6E0,9.13E2,9.2E1,2.12E2,2.88E2,1.4E1,4.8E1,1.4E1,3E1],"tree_param":{"num_deleted":"0","num_feature":"8","num_nodes":"39","size_leaf_vector":"1"}},{"base_weights":[-1.1279571E-1,7.009096E0,-2.1323693E0,3.606201E0,4.8405342E1,-3.0841901E0,1.7661057E1,-2.4447832E-1,1.9691326E1,6.485165E1,1.4319443E1,-5.21793E0,1.4430206E0,1.0137805E0,-1.0204832E1,-1.3501457E1,2.2751625E0,1.7305351E1,8.465179E-1,2.185618E0,1.3908917E0,3.0385263E0,7.0664173E-1,-4.4097486E0,-2.1219038E1,1.0894538E1,-4.6310945E0,-4.2081648E-1,-4.4213433E0,-4.9033922E-1,-7.863287E-2,1.629552E-1,-3.6617538E-1,3.845254E-1,5.8242095E-1,2.5044464E-2,1.3447817E-1,-1.999069E-1,-3.6821456E-3,-4.807921E-1,-7.630038E-1,2.2414446E-1,6.77853E-1,3.8324386E-2,-2.6178282E-1,-1.5423954E-1,-9.22972E-3],"categories":[],"categories_nodes":[],"categories_segments":[],"categories_sizes":[],"default_left":[0,0,0,0,0,0,0,0,0,0,0,0,0,0,0,0,0,0,0,0,0,0,0,0,0,0,0,0,0,0,0,0,0,0,0,0,0,0,0,0,0,0,0,0,0,0,0],"id":5,"left_children":[1,3,5,7,9,11,13,15,17,19,21,23,25,-1,27,29,31,33,-1,-1,-1,35,-1,37,39,41,43,-1,45,-1,-1,-1,-1,-1,-1,-1,-1,-1,-1,-1,-1,-1,-1,-1,-1,-1,-1],"loss_changes":[3.0924414E4,6.673731E4,3.1611123E4,2.7257824E4,1.9252484E4,1.5453692E4,3.4958055E4,1.1922123E4,1.2408164E3,1.7309375E2,1.2827998E3,1.3963287E4,2.950158E4,0E0,5.790757E2,1.7204453E3,1.3779863E4,4.0413672E2,0E0,0E0,0E0,1.853418E1,0E0,1.0009145E4,7.303574E2,7.8815703E3,7.5843745E3,0E0,3.692096E1,0E0,0E0,0E0,0E0,0E0,0E0,0E0,0E0,0E0,0E0,0E0,0E0,0E0,0E0,0E0,0E0,0E0,0E0],"parents":[2147483647,0,0,1,1,2,2,3,3,4,4,5,5,6,6,7,7,8,8,9,9,10,10,11,11,12,12,14,14,15,15,16,16,17,17,21,21,23,23,24,24,25,25,26,26,28,28],"right_children":[2,4,6,8,10,12,14,16,18,20,22,24,26,-1,28,30,32,34,-1,-1,-1,36,-1,38,40,42,44,-1,46,-1,-1,-1,-1,-1,-1,-1,-1,-1,-1,-1,-1,-1,-1,-1,-1,-1,-1],"split_conditions":[-7.249884E-1,1.9847673E0,2.2182875E0,1.3638381E0,-9.282578E-1,1.3638381E0,1.3638381E0,-1.2255796E0,-2.2530179E-1,-4.7918636E-1,3.0198455E0,1.8999249E0,-1.4265746E-1,1.0137805E0,-9.3169236E-1,-4.7918636E-1,1.6842836E0,-6.855612E-1,8.465179E-1,2.185618E0,1.3908917E0,-5.546389E-1,7.0664173E-1,4.5147762E-1,-6.2858564E-1,1.26169E0,-1.5565555E-2,-4.2081648E-1,9.6953845E-1,-4.9033922E-1,-7.863287E-2,1.629552E-1,-3.6617538E-1,3.845254E-1,5.8242095E-1,2.5044464E-2,1.3447817E-1,-1.999069E-1,-3.6821456E-3,-4.807921E-1,-7.630038E-1,2.2414446E-1,6.77853E-1,3.8324386E-2,-2.6178282E-1,-1.5423954E-1,-9.22972E-3],"split_indices":[7,1,7,4,7,4,4,7,2,4,1,1,1,0,1,4,1,2,0,0,0,5,0,7,7,2,7,0,5,0,0,0,0,0,0,0,0,0,0,0,0,0,0,0,0,0,0],"split_type":[0,0,0,0,0,0,0,0,0,0,0,0,0,0,0,0,0,0,0,0,0,0,0,0,0,0,0,0,0,0,0,0,0,0,0,0,0,0,0,0,0,0,0,0,0,0,0],"sum_hessian":[2.148E3,4.74E2,1.674E3,4.39E2,3.5E1,1.598E3,7.6E1,3.55E2,8.4E1,2.3E1,1.2E1,1.086E3,5.12E2,4.8E1,2.8E1,5.6E1,2.99E2,6.8E1,1.6E1,1.4E1,9E0,6E0,6E0,1.035E3,5.1E1,2E2,3.12E2,1.6E1,1.2E1,4.4E1,1.2E1,2.46E2,5.3E1,2.4E1,4.4E1,3E0,3E0,6.78E2,3.57E2,2.5E1,2.6E1,1.56E2,4.4E1,1.28E2,1.84E2,1E1,2E0],"tree_param":{"num_deleted":"0","num_feature":"8","num_nodes":"47","size_leaf_vector":"1"}},{"base_weights":[-5.4959852E-2,6.879963E0,-2.1155427E0,3.9303615E0,4.248223E1,-3.2096007E0,1.6541487E1,-1.0528135E0,1.3401882E1,1.94066E0,1.4214602E1,-4.200187E0,1.0783521E1,3.2919353E1,-9.136349E0,-2.1658227E0,9.53248E-1,8.955936E0,2.0785585E1,8.703361E-2,7.561721E-1,-3.3716009E0,-1.6381561E1,3.3389084E0,1.9223507E1,1.1085769E0,8.2267094E-1,-1.409366E-1,-3.928185E-1,-2.476713E-2,-8.111839E-1,3.437453E-1,-6.4694613E-1,6.8702596E-1,3.916213E-1,4.011495E-2,-1.4050427E-1,-6.1556655E-1,-1.92021E-1,-7.158592E-2,2.4652754E-1,7.8293693E-1,4.5298874E-1],"categories":[],"categories_nodes":[],"categories_segments":[],"categories_sizes":[],"default_left":[0,0,0,0,0,0,0,0,0,0,0,0,0,0,0,0,0,0,0,0,0,0,0,0,0,0,0,0,0,0,0,0,0,0,0,0,0,0,0,0,0,0,0],"id":6,"left_children":[1,3,5,7,9,11,13,15,17,-1,19,21,23,25,27,29,-1,31,33,-1,-1,35,37,39,41,-1,-1,-1,-1,-1,-1,-1,-1,-1,-1,-1,-1,-1,-1,-1,-1,-1,-1],"loss_changes":[3.1066686E4,5.2129254E4,3.426339E4,2.1772502E4,2.293396E4,2.200175E4,3.9411742E4,1.1139706E4,5.033424E3,0E0,2.1651392E3,1.4882883E4,6.5332188E3,2.5039062E2,5.88416E2,9.778736E3,0E0,7.960503E3,6.65959E2,0E0,0E0,8.574196E3,3.7503066E3,1.6116721E3,9.95041E2,0E0,0E0,0E0,0E0,0E0,0E0,0E0,0E0,0E0,0E0,0E0,0E0,0E0,0E0,0E0,0E0,0E0,0E0],"parents":[2147483647,0,0,1,1,2,2,3,3,4,4,5,5,6,6,7,7,8,8,10,10,11,11,12,12,13,13,14,14,15,15,17,17,18,18,21,21,22,22,23,23,24,24],"right_children":[2,4,6,8,10,12,14,16,18,-1,20,22,24,26,28,30,-1,32,34,-1,-1,36,38,40,42,-1,-1,-1,-1,-1,-1,-1,-1,-1,-1,-1,-1,-1,-1,-1,-1,-1,-1],"split_conditions":[-7.249884E-1,1.9847673E0,2.2182875E0,-7.840299E-2,-2.8119799E-2,2.2879543E0,3.4988878E0,-3.856619E-1,4.2900008E-1,1.94066E0,-8.799548E-1,1.8999249E0,-6.576872E-1,2.7412395E0,2.7412395E0,-1.5001844E-1,9.53248E-1,1.852028E-1,-6.892593E-1,8.703361E-2,7.561721E-1,-3.856619E-1,-4.9778658E-1,-4.8787954E-1,-2.7048686E-1,1.1085769E0,8.2267094E-1,-1.409366E-1,-3.928185E-1,-2.476713E-2,-8.111839E-1,3.437453E-1,-6.4694613E-1,6.8702596E-1,3.916213E-1,4.011495E-2,-1.4050427E-1,-6.1556655E-1,-1.92021E-1,-7.158592E-2,2.4652754E-1,7.8293693E-1,4.5298874E-1],"split_indices":[7,1,7,6,6,6,7,0,6,0,0,1,0,0,0,6,0,6,0,0,0,0,7,7,0,0,0,0,0,0,0,0,0,0,0,0,0,0,0,0,0,0,0],"split_type":[0,0,0,0,0,0,0,0,0,0,0,0,0,0,0,0,0,0,0,0,0,0,0,0,0,0,0,0,0,0,0,0,0,0,0,0,0,0,0,0,0,0,0],"sum_hessian":[2.172E3,4.97E2,1.675E3,4.6E2,3.7E1,1.583E3,9.2E1,3.02E2,1.58E2,2E1,1.7E1,1.479E3,1.04E2,5.6E1,3.6E1,2.93E2,9E0,1E2,5.8E1,9E0,8E0,1.386E3,9.3E1,5.6E1,4.8E1,2.9E1,2.7E1,1.8E1,1.8E1,2.79E2,1.4E1,9.3E1,7E0,4.4E1,1.4E1,3.02E2,1.084E3,6.5E1,2.8E1,2.6E1,3E1,1.6E1,3.2E1],"tree_param":{"num_deleted":"0","num_feature":"8","num_nodes":"43","size_leaf_vector":"1"}},{"base_weights":[2.0981799E-1,-5.791783E-1,1.9594086E1,6.894033E0,-2.9350128E0,3.2506508E1,-8.869418E0,4.084893E0,4.2597095E1,-4.2673E0,9.342818E0,1.0459145E0,7.431126E-1,-3.9812607E-1,-9.325674E-2,-3.9726743E-1,1.5225392E1,6.209814E1,1.4339657E1,-3.545243E0,-1.5829696E1,1.0218736E0,1.786929E1,2.621438E-2,-8.1190395E-1,3.4550074E-1,6.4427066E-1,2.08926E0,1.2340235E0,1.0999105E-1,7.3663944E-1,-9.2574105E-2,-6.0112894E-1,-6.3724256E-1,-1.1455987E-1,9.254921E-2,-3.6036864E-1,6.786427E-1,3.9080495E-1],"categories":[],"categories_nodes":[],"categories_segments":[],"categories_sizes":[],"default_left":[0,0,0,0,0,0,0,0,0,0,0,0,0,0,0,0,0,0,0,0,0,0,0,0,0,0,0,0,0,0,0,0,0,0,0,0,0,0,0],"id":7,"left_children":[1,3,5,7,9,11,13,15,17,19,21,-1,-1,-1,-1,23,25,27,29,31,33,35,37,-1,-1,-1,-1,-1,-1,-1,-1,-1,-1,-1,-1,-1,-1,-1,-1],"loss_changes":[3.2847816E4,3.6358297E4,3.1161068E4,4.9471973E4,2.5721293E4,1.941211E2,6.4336255E2,2.2975463E4,1.8947324E4,1.1774004E4,1.0907775E4,0E0,0E0,0E0,0E0,1.11750625E4,2.8124941E3,4.5647656E2,1.654415E3,1.0053801E4,5.31392E3,2.1614292E3,1.4542305E3,0E0,0E0,0E0,0E0,0E0,0E0,0E0,0E0,0E0,0E0,0E0,0E0,0E0,0E0,0E0,0E0],"parents":[2147483647,0,0,1,1,2,2,3,3,4,4,5,5,6,6,7,7,8,8,9,9,10,10,15,15,16,16,17,17,18,18,19,19,20,20,21,21,22,22],"right_children":[2,4,6,8,10,12,14,16,18,20,22,-1,-1,-1,-1,24,26,28,30,32,34,36,38,-1,-1,-1,-1,-1,-1,-1,-1,-1,-1,-1,-1,-1,-1,-1,-1],"split_conditions":[2.2182875E0,-7.249884E-1,1.3638381E0,1.9847673E0,1.7180781E0,3.0094404E0,-9.3169236E-1,4.1971914E-2,-2.8119799E-2,1.8999249E0,-7.897071E-2,1.0459145E0,7.431126E-1,-3.9812607E-1,-9.325674E-2,-7.703407E-1,4.442374E-1,-4.7918636E-1,3.0198455E0,1.828163E0,1.3638381E0,1.6842836E0,1.7317355E-1,2.621438E-2,-8.1190395E-1,3.4550074E-1,6.4427066E-1,2.08926E0,1.2340235E0,1.0999105E-1,7.3663944E-1,-9.2574105E-2,-6.0112894E-1,-6.3724256E-1,-1.1455987E-1,9.254921E-2,-3.6036864E-1,6.786427E-1,3.9080495E-1],"split_indices":[7,7,4,1,6,7,1,6,6,1,7,0,0,0,0,7,6,4,1,2,4,1,7,0,0,0,0,0,0,0,0,0,0,0,0,0,0,0,0],"split_type":[0,0,0,0,0,0,0,0,0,0,0,0,0,0,0,0,0,0,0,0,0,0,0,0,0,0,0,0,0,0,0,0,0,0,0,0,0,0,0],"sum_hessian":[2.146E3,2.063E3,8.3E1,4.94E2,1.569E3,5.7E1,2.6E1,4.59E2,3.5E1,1.416E3,1.53E2,4.1E1,1.6E1,1.4E1,1.2E1,3.28E2,1.31E2,2E1,1.5E1,1.334E3,8.2E1,7.8E1,7.5E1,3.14E2,1.4E1,8.4E1,4.7E1,1.3E1,7E0,8E0,7E0,1.299E3,3.5E1,5.6E1,2.6E1,6.8E1,1E1,3.6E1,3.9E1],"tree_param":{"num_deleted":"0","num_feature":"8","num_nodes":"39","size_leaf_vector":"1"}},{"base_weights":[-6.282281E-2,6.3424616E0,-1.9292254E0,-1.1581552E1,9.003292E0,3.580661E0,-4.1716695E0,-1.6293215E1,1.8720856E-1,1.0224586E1,-3.2526107E0,-1.2850221E1,1.2043189E1,-6.009035E-1,-1.1357214E1,-5.119322E-1,-2.5309178E-1,5.915481E0,-8.428601E0,8.723144E0,1.5564479E1,-6.271698E-1,9.936714E0,-7.959115E0,-2.4166916E1,8.448814E0,4.89689E1,2.270603E0,-6.077782E0,-1.6612293E1,-3.8723931E0,8.206717E-2,2.1490467E-1,-1.1525687E-1,-3.6164495E-1,6.383465E-2,3.6079872E-1,9.3555456E-1,-2.714464E-1,-4.0645236E-3,5.308494E-1,-3.1528172E-1,2.2532067E-1,-9.951728E-1,-4.4773912E-1,1.5238583E-1,4.8116654E-1,1.9864573E0,1.0174346E0,-8.1683286E-2,2.979684E-1,-3.296016E-1,-1.3065314E-1,-6.7699116E-1,-3.5575938E-1,-1.5439081E-1,2.7121523E-1],"categories":[],"categories_nodes":[],"categories_segments":[],"categories_sizes":[],"default_left":[0,0,0,0,0,0,0,0,0,0,0,0,0,0,0,0,0,0,0,0,0,0,0,0,0,0,0,0,0,0,0,0,0,0,0,0,0,0,0,0,0,0,0,0,0,0,0,0,0,0,0,0,0,0,0,0,0],"id":8,"left_children":[1,3,5,7,9,11,13,15,17,19,21,23,25,27,29,-1,-1,31,33,35,37,-1,39,41,43,45,47,49,51,53,55,-1,-1,-1,-1,-1,-1,-1,-1,-1,-1,-1,-1,-1,-1,-1,-1,-1,-1,-1,-1,-1,-1,-1,-1,-1,-1],"loss_changes":[2.5643414E4,2.3187562E4,2.0537607E4,3.4964287E3,6.3497812E3,6.7036266E4,3.029515E4,1.2869824E2,9.875797E2,2.9429648E3,9.288174E3,8.88524E3,4.179277E4,1.2438044E4,1.535434E4,0E0,0E0,2.8026337E1,8.6746216E1,6.55424E3,3.2192916E4,0E0,1.7996819E3,4.655395E3,3.5832559E3,7.3603086E3,5.0240938E3,1.9882768E4,2.2523242E3,6.242215E3,2.727976E3,0E0,0E0,0E0,0E0,0E0,0E0,0E0,0E0,0E0,0E0,0E0,0E0,0E0,0E0,0E0,0E0,0E0,0E0,0E0,0E0,0E0,0E0,0E0,0E0,0E0,0E0],"parents":[2147483647,0,0,1,1,2,2,3,3,4,4,5,5,6,6,7,7,8,8,9,9,10,10,11,11,12,12,13,13,14,14,17,17,18,18,19,19,20,20,22,22,23,23,24,24,25,25,26,26,27,27,28,28,29,29,30,30],"right_children":[2,4,6,8,10,12,14,16,18,20,22,24,26,28,30,-1,-1,32,34,36,38,-1,40,42,44,46,48,50,52,54,56,-1,-1,-1,-1,-1,-1,-1,-1,-1,-1,-1,-1,-1,-1,-1,-1,-1,-1,-1,-1,-1,-1,-1,-1,-1,-1],"split_conditions":[-7.6130044E-1,-4.7918636E-1,7.372098E-2,-1.9774473E-1,1.9955301E-1,-1.5255575E-1,4.272011E-1,-8.1644803E-1,2.7412395E0,-1.2146651E-1,6.2662834E-1,-1.2874388E-2,1.9847673E0,9.1662437E-1,1.3638381E0,-5.119322E-1,-2.5309178E-1,-1.2146651E-1,-1.651269E-1,6.2662834E-1,1.3638381E0,-6.271698E-1,1.3638381E0,-1.5449266E-1,-4.7918636E-1,1.005544E0,-4.7918636E-1,1.3638381E0,9.961861E-1,2.3495758E-1,1.5449265E0,8.206717E-2,2.1490467E-1,-1.1525687E-1,-3.6164495E-1,6.383465E-2,3.6079872E-1,9.3555456E-1,-2.714464E-1,-4.0645236E-3,5.308494E-1,-3.1528172E-1,2.2532067E-1,-9.951728E-1,-4.4773912E-1,1.5238583E-1,4.8116654E-1,1.9864573E0,1.0174346E0,-8.1683286E-2,2.979684E-1,-3.296016E-1,-1.3065314E-1,-6.7699116E-1,-3.5575938E-1,-1.5439081E-1,2.7121523E-1],"split_indices":[1,4,4,0,2,1,1,1,0,0,4,2,1,0,4,0,0,0,5,4,4,0,4,2,4,1,4,4,0,2,2,0,0,0,0,0,0,0,0,0,0,0,0,0,0,0,0,0,0,0,0,0,0,0,0,0,0],"split_type":[0,0,0,0,0,0,0,0,0,0,0,0,0,0,0,0,0,0,0,0,0,0,0,0,0,0,0,0,0,0,0,0,0,0,0,0,0,0,0,0,0,0,0,0,0,0,0,0,0,0,0,0,0,0,0,0,0],"sum_hessian":[2.143E3,4.83E2,1.66E3,6.2E1,4.21E2,4.8E2,1.18E3,4.4E1,1.8E1,3.83E2,3.8E1,1.63E2,3.17E2,7.89E2,3.91E2,3.9E1,5E0,1.1E1,7E0,3.01E2,8.2E1,1.6E1,2.2E1,1.15E2,4.8E1,2.9E2,2.7E1,5.18E2,2.71E2,2.29E2,1.62E2,4E0,7E0,4E0,3E0,1.01E2,2E2,5E1,3.2E1,1E1,1.2E1,9.9E1,1.6E1,2.3E1,2.5E1,2.02E2,8.8E1,1.1E1,1.6E1,3.14E2,2.04E2,6.9E1,2.02E2,1E2,1.29E2,1.48E2,1.4E1],"tree_param":{"num_deleted":"0","num_feature":"8","num_nodes":"57","size_leaf_vector":"1"}},{"base_weights":[3.5674012E-1,-3.8149107E-1,1.6513706E1,5.808389E0,-2.233021E0,3.0749332E1,-9.869665E0,3.0050714E0,4.00832E1,-3.4092634E0,7.6013465E0,7.903226E-1,1.0282931E0,-3.7963995E-1,-1.3834845E-1,-1.9871609E-1,1.8172314E1,1.8483931E0,1.3662522E1,1.7931722E0,-4.9790053E0,-1.4003103E-2,1.4516595E1,-4.3147838E-1,6.336036E-2,3.2359758E-1,6.4309347E-1,1.05520755E-1,6.6868883E-1,-4.0060706E-2,4.4803047E-1,-2.3464851E-1,-8.702854E-3,9.202252E-2,-4.071396E-1,1.4059246E-3,4.7943872E-1],"categories":[],"categories_nodes":[],"categories_segments":[],"categories_sizes":[],"default_left":[0,0,0,0,0,0,0,0,0,0,0,0,0,0,0,0,0,0,0,0,0,0,0,0,0,0,0,0,0,0,0,0,0,0,0,0,0],"id":9,"left_children":[1,3,5,7,9,11,13,15,17,19,21,-1,-1,-1,-1,23,25,-1,27,29,31,33,35,-1,-1,-1,-1,-1,-1,-1,-1,-1,-1,-1,-1,-1,-1],"loss_changes":[2.5113848E4,2.3094918E4,3.4857195E4,4.446214E4,1.7967262E4,2.928125E1,4.2488232E2,2.089844E4,1.9067422E4,1.1327672E4,8.742103E3,0E0,0E0,0E0,0E0,1.1698323E4,1.576875E3,0E0,1.4094971E3,1.3258186E4,1.4192852E4,3.3836929E3,1.8431055E3,0E0,0E0,0E0,0E0,0E0,0E0,0E0,0E0,0E0,0E0,0E0,0E0,0E0,0E0],"parents":[2147483647,0,0,1,1,2,2,3,3,4,4,5,5,6,6,7,7,8,8,9,9,10,10,15,15,16,16,18,18,19,19,20,20,21,21,22,22],"right_children":[2,4,6,8,10,12,14,16,18,20,22,-1,-1,-1,-1,24,26,-1,28,30,32,34,36,-1,-1,-1,-1,-1,-1,-1,-1,-1,-1,-1,-1,-1,-1],"split_conditions":[2.2182875E0,-7.249884E-1,1.3638381E0,1.9847673E0,1.7180781E0,-9.3169236E-1,-9.3169236E-1,1.3638381E0,-2.8119799E-2,-4.4486076E-1,-7.897071E-2,7.903226E-1,1.0282931E0,-3.7963995E-1,-1.3834845E-1,-1.2255796E0,9.073137E-2,1.8483931E0,3.0198455E0,1.8893518E-1,1.3638381E0,1.6842836E0,6.2662834E-1,-4.3147838E-1,6.336036E-2,3.2359758E-1,6.4309347E-1,1.05520755E-1,6.6868883E-1,-4.0060706E-2,4.4803047E-1,-2.3464851E-1,-8.702854E-3,9.202252E-2,-4.071396E-1,1.4059246E-3,4.7943872E-1],"split_indices":[7,7,4,1,6,1,1,4,6,6,7,0,0,0,0,7,6,0,1,1,4,1,4,0,0,0,0,0,0,0,0,0,0,0,0,0,0],"split_type":[0,0,0,0,0,0,0,0,0,0,0,0,0,0,0,0,0,0,0,0,0,0,0,0,0,0,0,0,0,0,0,0,0,0,0,0,0],"sum_hessian":[2.104E3,2.013E3,9.1E1,4.63E2,1.55E3,5.9E1,3.2E1,4.29E2,3.4E1,1.385E3,1.65E2,3E1,2.9E1,2E1,1.2E1,3.55E2,7.4E1,1.8E1,1.6E1,3.21E2,1.064E3,7.9E1,8.6E1,4.9E1,3.06E2,2.4E1,5E1,8E0,8E0,2.6E2,6.1E1,6.62E2,4.02E2,6.5E1,1.4E1,8E0,7.8E1],"tree_param":{"num_deleted":"0","num_feature":"8","num_nodes":"37","size_leaf_vector":"1"}},{"base_weights":[2.3503171E-2,-6.679689E-1,1.602033E1,6.418937E0,-2.6035342E0,2.9482826E1,-7.7185364E0,-1.9239727E-2,1.4499604E1,-3.7809398E0,7.447432E0,9.625304E-1,6.442284E-1,-1.2263377E-1,-3.540873E-1,-4.9009686E0,9.685634E0,1.133729E1,3.5676346E1,-7.6425683E-1,-3.4902532E0,1.8546179E-1,1.4880098E1,-5.452531E-1,-6.516454E-2,1.620521E0,1.6589068E-1,4.333386E-1,-5.958594E-1,1.9406011E0,6.24025E-1,4.499123E-1,-1.1771528E-1,-2.0830274E-1,1.2177965E-1,6.416048E-1,3.1394023E-1],"categories":[],"categories_nodes":[],"categories_segments":[],"categories_sizes":[],"default_left":[0,0,0,0,0,0,0,0,0,0,0,0,0,0,0,0,0,0,0,0,0,0,0,0,0,0,0,0,0,0,0,0,0,0,0,0,0],"id":10,"left_children":[1,3,5,7,9,11,13,15,17,19,21,-1,-1,-1,-1,23,25,27,29,-1,31,33,35,-1,-1,-1,-1,-1,-1,-1,-1,-1,-1,-1,-1,-1,-1],"loss_changes":[2.375944E4,2.8260363E4,2.8670572E4,2.2995227E4,1.9175674E4,4.9857422E2,4.411194E2,1.17494795E4,1.272116E4,9.048824E3,9.173128E3,0E0,0E0,0E0,0E0,5.9372637E3,1.4993239E4,1.6961691E4,9.443066E3,0E0,1.1529613E4,2.4308044E3,2.1895098E3,0E0,0E0,0E0,0E0,0E0,0E0,0E0,0E0,0E0,0E0,0E0,0E0,0E0,0E0],"parents":[2147483647,0,0,1,1,2,2,3,3,4,4,5,5,6,6,7,7,8,8,9,9,10,10,15,15,16,16,17,17,18,18,20,20,21,21,22,22],"right_children":[2,4,6,8,10,12,14,16,18,20,22,-1,-1,-1,-1,24,26,28,30,-1,32,34,36,-1,-1,-1,-1,-1,-1,-1,-1,-1,-1,-1,-1,-1,-1],"split_conditions":[2.2182875E0,-7.6560086E-1,1.3638381E0,-2.1934828E-1,1.7180781E0,3.0094404E0,2.7412395E0,-8.9889807E-1,-7.678107E-1,-7.52508E-1,-7.897071E-2,9.625304E-1,6.442284E-1,-1.2263377E-1,-3.540873E-1,-1.2993774E0,-8.799548E-1,-8.799548E-1,-2.8119799E-2,-7.6425683E-1,-7.249884E-1,2.2879543E0,-1.9774473E-1,-5.452531E-1,-6.516454E-2,1.620521E0,1.6589068E-1,4.333386E-1,-5.958594E-1,1.9406011E0,6.24025E-1,4.499123E-1,-1.1771528E-1,-2.0830274E-1,1.2177965E-1,6.416048E-1,3.1394023E-1],"split_indices":[7,7,4,6,6,7,0,0,0,7,7,0,0,0,0,7,0,0,6,0,7,6,0,0,0,0,0,0,0,0,0,0,0,0,0,0,0],"split_type":[0,0,0,0,0,0,0,0,0,0,0,0,0,0,0,0,0,0,0,0,0,0,0,0,0,0,0,0,0,0,0,0,0,0,0,0,0],"sum_hessian":[2.146E3,2.058E3,8.8E1,4.41E2,1.617E3,5.6E1,3.2E1,2.46E2,1.95E2,1.448E3,1.69E2,4E1,1.6E1,1.8E1,1.4E1,1.64E2,8.2E1,1.71E2,2.4E1,1.8E1,1.43E3,8.6E1,8.3E1,2.7E1,1.37E2,6E0,7.6E1,1.56E2,1.5E1,7E0,1.7E1,3.2E1,1.398E3,3E1,5.6E1,3.2E1,5.1E1],"tree_param":{"num_deleted":"0","num_feature":"8","num_nodes":"37","size_leaf_vector":"1"}},{"base_weights":[3.3350237E-2,-7.918166E-1,1.9149345E1,5.053683E0,-2.5195594E0,2.8356903E1,-8.90558E0,3.2009606E0,3.5745213E1,-3.284718E0,9.717284E0,9.146577E-1,6.050517E-1,-1.3257624E-1,-3.6050087E-1,1.30497E-1,1.6010706E1,1.6178517E0,1.2014989E1,-2.5788476E0,-1.4182334E1,3.078882E0,1.838545E1,-3.4001E-1,7.155943E-2,7.52856E-1,4.0830123E-1,7.723638E-2,5.921701E-1,7.243933E-2,-1.1908014E-1,-5.9822786E-1,-2.1469413E-1,-8.656713E-2,2.1427876E-1,3.3510733E-1,6.2957615E-1],"categories":[],"categories_nodes":[],"categories_segments":[],"categories_sizes":[],"default_left":[0,0,0,0,0,0,0,0,0,0,0,0,0,0,0,0,0,0,0,0,0,0,0,0,0,0,0,0,0,0,0,0,0,0,0,0,0],"id":11,"left_children":[1,3,5,7,9,11,13,15,17,19,21,-1,-1,-1,-1,23,25,-1,27,29,31,33,35,-1,-1,-1,-1,-1,-1,-1,-1,-1,-1,-1,-1,-1,-1],"loss_changes":[3.4307586E4,2.107023E4,2.3501094E4,2.6952309E4,1.5106552E4,5.720586E2,2.6792126E2,1.7697244E4,1.1002305E4,1.1624962E4,5.409957E3,0E0,0E0,0E0,0E0,9.436288E3,1.5558203E3,0E0,8.9711646E2,9.903936E3,3.5795293E3,1.3537012E3,5.3484766E2,0E0,0E0,0E0,0E0,0E0,0E0,0E0,0E0,0E0,0E0,0E0,0E0,0E0,0E0],"parents":[2147483647,0,0,1,1,2,2,3,3,4,4,5,5,6,6,7,7,8,8,9,9,10,10,15,15,16,16,18,18,19,19,20,20,21,21,22,22],"right_children":[2,4,6,8,10,12,14,16,18,20,22,-1,-1,-1,-1,24,26,-1,28,30,32,34,36,-1,-1,-1,-1,-1,-1,-1,-1,-1,-1,-1,-1,-1,-1],"split_conditions":[2.2182875E0,-7.249884E-1,1.3638381E0,1.9847673E0,2.2879543E0,3.0094404E0,2.7412395E0,1.3638381E0,-2.8119799E-2,1.8999249E0,-6.576872E-1,9.146577E-1,6.050517E-1,-1.3257624E-1,-3.6050087E-1,-1.2255796E0,-1.3128716E0,1.6178517E0,-8.799548E-1,-3.856619E-1,1.3638381E0,1.3638381E0,1.3638381E0,-3.4001E-1,7.155943E-2,7.52856E-1,4.0830123E-1,7.723638E-2,5.921701E-1,7.243933E-2,-1.1908014E-1,-5.9822786E-1,-2.1469413E-1,-8.656713E-2,2.1427876E-1,3.3510733E-1,6.2957615E-1],"split_indices":[7,7,4,1,6,7,0,4,6,1,0,0,0,0,0,7,0,0,0,0,4,4,4,0,0,0,0,0,0,0,0,0,0,0,0,0,0],"split_type":[0,0,0,0,0,0,0,0,0,0,0,0,0,0,0,0,0,0,0,0,0,0,0,0,0,0,0,0,0,0,0,0,0,0,0,0,0],"sum_hessian":[2.173E3,2.084E3,8.9E1,4.75E2,1.609E3,6.7E1,2.2E1,4.49E2,2.6E1,1.515E3,9.4E1,5.1E1,1.6E1,1E1,1.2E1,3.63E2,8.6E1,1.4E1,1.2E1,1.424E3,9.1E1,5.4E1,4E1,5.9E1,3.04E2,1.6E1,7E1,6E0,6E0,3.1E2,1.114E3,4.9E1,4.2E1,2.2E1,3.2E1,1.2E1,2.8E1],"tree_param":{"num_deleted":"0","num_feature":"8","num_nodes":"37","size_leaf_vector":"1"}},{"base_weights":[-5.4928787E-2,-7.5073904E-1,1.4272353E1,2.0422502E0,-3.5977566E0,2.2929392E1,-9.982949E0,-5.6223273E-1,9.010999E0,-4.4395833E0,1.0972962E1,-1.5085665E0,2.8162212E1,-1.8452476E-1,-3.562598E-1,5.286305E0,-4.3835816E0,1.659609E1,6.3440666E0,-3.9962049E0,-2.8929367E1,-1.0237595E0,1.2707673E1,6.0827937E0,-7.9624357E0,9.587383E-1,7.1170926E-1,-2.7451602E-1,3.041776E-1,1.663705E-1,-2.509842E-1,2.584803E-1,5.50309E-1,1.4553523E-1,6.9285715E-1,-1.46651E-1,1.3102834E-1,-1.46399E0,-1.7534073E-1,1.493501E-3,-8.4887765E-2,2.6753035E-1,4.2825037E-1,2.3612061E-1,3.226121E-2,-1.09581545E-1,-3.407692E-1],"categories":[],"categories_nodes":[],"categories_segments":[],"categories_sizes":[],"default_left":[0,0,0,0,0,0,0,0,0,0,0,0,0,0,0,0,0,0,0,0,0,0,0,0,0,0,0,0,0,0,0,0,0,0,0,0,0,0,0,0,0,0,0,0,0,0,0],"id":12,"left_children":[1,3,5,7,9,11,13,15,17,19,21,23,25,-1,-1,27,29,31,33,35,37,39,41,43,45,-1,-1,-1,-1,-1,-1,-1,-1,-1,-1,-1,-1,-1,-1,-1,-1,-1,-1,-1,-1,-1,-1],"loss_changes":[2.1523967E4,1.6379877E4,2.1226809E4,1.888105E4,1.2560053E4,9.505566E3,1.227561E2,1.6963943E4,5.619498E3,1.0362588E4,1.1784165E3,7.3434485E2,2.6954297E2,0E0,0E0,2.1111148E4,1.819704E4,8.5997656E2,5.164585E3,7.102672E3,7.512673E3,1.5649977E1,1.6377051E2,5.42052E1,7.561383E1,0E0,0E0,0E0,0E0,0E0,0E0,0E0,0E0,0E0,0E0,0E0,0E0,0E0,0E0,0E0,0E0,0E0,0E0,0E0,0E0,0E0,0E0],"parents":[2147483647,0,0,1,1,2,2,3,3,4,4,5,5,6,6,7,7,8,8,9,9,10,10,11,11,12,12,15,15,16,16,17,17,18,18,19,19,20,20,21,21,22,22,23,23,24,24],"right_children":[2,4,6,8,10,12,14,16,18,20,22,24,26,-1,-1,28,30,32,34,36,38,40,42,44,46,-1,-1,-1,-1,-1,-1,-1,-1,-1,-1,-1,-1,-1,-1,-1,-1,-1,-1,-1,-1,-1,-1],"split_conditions":[2.719013E0,-2.7048686E-1,1.3638381E0,1.3638381E0,1.6784611E0,-4.7918636E-1,2.7412395E0,7.372098E-2,-1.0325112E0,1.509522E0,6.2662834E-1,2.7412395E0,2.7412395E0,-1.8452476E-1,-3.562598E-1,-9.400681E-1,-9.400681E-1,-8.2717943E-1,-2.7174973E-1,1.3280721E0,-4.7918636E-1,4.6147934E-1,1.26169E0,5.503204E-2,-1.651269E-1,9.587383E-1,7.1170926E-1,-2.7451602E-1,3.041776E-1,1.663705E-1,-2.509842E-1,2.584803E-1,5.50309E-1,1.4553523E-1,6.9285715E-1,-1.46651E-1,1.3102834E-1,-1.46399E0,-1.7534073E-1,1.493501E-3,-8.4887765E-2,2.6753035E-1,4.2825037E-1,2.3612061E-1,3.226121E-2,-1.09581545E-1,-3.407692E-1],"split_indices":[0,0,4,4,6,4,0,4,0,2,4,0,0,0,0,0,0,2,0,0,4,5,2,5,5,0,0,0,0,0,0,0,0,0,0,0,0,0,0,0,0,0,0,0,0,0,0],"split_type":[0,0,0,0,0,0,0,0,0,0,0,0,0,0,0,0,0,0,0,0,0,0,0,0,0,0,0,0,0,0,0,0,0,0,0,0,0,0,0,0,0,0,0,0,0,0,0],"sum_hessian":[2.157E3,2.058E3,9.9E1,1.039E3,1.019E3,7.3E1,2.6E1,7.57E2,2.82E2,9.64E2,5.5E1,1.3E1,6E1,1E1,1.6E1,2.99E2,4.58E2,7.2E1,2.1E2,9.48E2,1.6E1,7E0,4.8E1,6E0,7E0,2.9E1,3.1E1,7.5E1,2.24E2,1.31E2,3.27E2,1.4E1,5.8E1,1.94E2,1.6E1,8.57E2,9.1E1,8E0,8E0,5E0,2E0,1.6E1,3.2E1,4E0,2E0,4E0,3E0],"tree_param":{"num_deleted":"0","num_feature":"8","num_nodes":"47","size_leaf_vector":"1"}},{"base_weights":[9.001768E-2,5.677134E0,-1.5387883E0,-1.1748065E1,8.47962E0,3.2435524E0,-3.393423E0,-1.47864685E1,-1.584334E0,7.231292E-1,7.5304317E0,3.2964358E-1,4.8046097E1,3.3107522E0,-7.350574E0,-4.9553254E-1,-3.4085283E-1,3.7108371E0,-2.903695E-1,1.1926984E0,1.0172528E1,-1.1520245E1,6.3532243E0,1.6415617E0,5.7774025E-1,-1.3580565E0,1.0009141E1,-5.231656E0,-1.474239E1,4.6799466E-2,1.4151128E-1,-1.14722975E-1,7.5076246E-1,1.5459967E-1,4.201873E-1,-2.0300977E-1,-5.838887E-1,-2.3928873E-1,2.3979467E-1,-1.8887793E-1,4.2552844E-2,4.8621595E-1,1.4391185E-1,-2.3322625E-1,9.770305E-2,-6.049959E-1,-1.675984E-1],"categories":[],"categories_nodes":[],"categories_segments":[],"categories_sizes":[],"default_left":[0,0,0,0,0,0,0,0,0,0,0,0,0,0,0,0,0,0,0,0,0,0,0,0,0,0,0,0,0,0,0,0,0,0,0,0,0,0,0,0,0,0,0,0,0,0,0],"id":13,"left_children":[1,3,5,7,9,11,13,15,17,-1,19,21,23,25,27,-1,-1,29,-1,31,33,35,37,-1,-1,39,41,43,45,-1,-1,-1,-1,-1,-1,-1,-1,-1,-1,-1,-1,-1,-1,-1,-1,-1,-1],"loss_changes":[1.9956654E4,2.427239E4,1.507141E4,2.1073975E3,6.1512227E3,6.199566E4,3.2496363E4,1.2657324E2,7.645806E2,0E0,6.7528086E3,3.1979496E4,4.5168984E3,1.4243033E4,1.1983117E4,0E0,0E0,1.6447708E1,0E0,1.4443371E4,5.4118516E3,5.5691055E3,7.043086E3,0E0,0E0,3.696902E3,5.963246E3,1.2974678E4,8.379578E3,0E0,0E0,0E0,0E0,0E0,0E0,0E0,0E0,0E0,0E0,0E0,0E0,0E0,0E0,0E0,0E0,0E0,0E0],"parents":[2147483647,0,0,1,1,2,2,3,3,4,4,5,5,6,6,7,7,8,8,10,10,11,11,12,12,13,13,14,14,17,17,19,19,20,20,21,21,22,22,25,25,26,26,27,27,28,28],"right_children":[2,4,6,8,10,12,14,16,18,-1,20,22,24,26,28,-1,-1,30,-1,32,34,36,38,-1,-1,40,42,44,46,-1,-1,-1,-1,-1,-1,-1,-1,-1,-1,-1,-1,-1,-1,-1,-1,-1,-1],"split_conditions":[-7.6130044E-1,-4.7918636E-1,7.372098E-2,-1.9774473E-1,-9.667393E-1,1.9847673E0,-1.4265746E-1,-1.0431194E0,2.7412395E0,7.231292E-1,6.2662834E-1,-1.5255575E-1,-2.8119799E-2,1.3638381E0,1.6842836E0,-4.9553254E-1,-3.4085283E-1,-1.2146651E-1,-2.903695E-1,-1.9774473E-1,-6.855612E-1,6.796613E-2,-1.3720522E0,1.6415617E0,5.7774025E-1,6.2662834E-1,-2.7048686E-1,1.0476357E0,1.3638381E0,4.6799466E-2,1.4151128E-1,-1.14722975E-1,7.5076246E-1,1.5459967E-1,4.201873E-1,-2.0300977E-1,-5.838887E-1,-2.3928873E-1,2.3979467E-1,-1.8887793E-1,4.2552844E-2,4.8621595E-1,1.4391185E-1,-2.3322625E-1,9.770305E-2,-6.049959E-1,-1.675984E-1],"split_indices":[1,4,4,0,6,1,1,0,0,0,4,1,6,4,1,0,0,0,0,0,2,0,6,0,0,4,0,6,4,0,0,0,0,0,0,0,0,0,0,0,0,0,0,0,0,0,0],"split_type":[0,0,0,0,0,0,0,0,0,0,0,0,0,0,0,0,0,0,0,0,0,0,0,0,0,0,0,0,0,0,0,0,0,0,0,0,0,0,0,0,0,0,0,0,0,0,0],"sum_hessian":[2.191E3,4.94E2,1.697E3,6.8E1,4.26E2,4.74E2,1.223E3,5.2E1,1.6E1,2.3E1,4.03E2,4.46E2,2.8E1,4.54E2,7.69E2,3.2E1,2E1,1E1,6E0,1.19E2,2.84E2,1.5E2,2.96E2,2.2E1,6E0,2.68E2,1.86E2,5.99E2,1.7E2,4E0,6E0,9.9E1,2E1,1.24E2,1.6E2,9.5E1,5.5E1,3E1,2.66E2,9.6E1,1.72E2,8.4E1,1.02E2,4.61E2,1.38E2,1.06E2,6.4E1],"tree_param":{"num_deleted":"0","num_feature":"8","num_nodes":"47","size_leaf_vector":"1"}},{"base_weights":[1.710074E-1,5.2525935E0,-2.0206416E0,-1.2827943E1,8.19336E0,4.1358385E0,-4.626286E0,-9.359302E0,-2.1406391E1,6.5082846E0,1.6877687E1,1.0566251E0,4.6416103E1,-1.2353897E0,-1.0710887E1,-1.23221855E1,-1.632269E0,-4.512253E-1,-1.015463E0,-4.527802E-1,9.622153E0,2.7621119E1,-7.4139414E0,-1.2429882E1,6.067453E0,1.7724326E0,2.8968054E1,-5.867107E0,1.7100196E0,-1.5453553E1,-3.3873916E0,-4.4591805E-1,-2.7165598E-1,9.464107E-2,-2.35006E-1,4.3143553E-1,-1.1116006E-1,4.701158E-1,2.1032837E-1,9.226262E-1,7.0580876E-1,-1.1815326E-1,-3.1185532E-1,-2.5216395E-1,-6.689157E-1,-2.1964844E-1,2.2396046E-1,1.0981091E0,5.943178E-1,-1.4263062E-1,-2.641466E-1,-5.353826E-2,2.1682566E-1,-6.2026817E-1,-3.2203555E-1,-3.80946E-2,-3.3147517E-1],"categories":[],"categories_nodes":[],"categories_segments":[],"categories_sizes":[],"default_left":[0,0,0,0,0,0,0,0,0,0,0,0,0,0,0,0,0,0,0,0,0,0,0,0,0,0,0,0,0,0,0,0,0,0,0,0,0,0,0,0,0,0,0,0,0,0,0,0,0,0,0,0,0,0,0,0,0],"id":14,"left_children":[1,3,5,7,9,11,13,15,17,19,21,23,25,27,29,31,33,-1,-1,35,37,39,41,43,45,-1,47,49,51,53,55,-1,-1,-1,-1,-1,-1,-1,-1,-1,-1,-1,-1,-1,-1,-1,-1,-1,-1,-1,-1,-1,-1,-1,-1,-1,-1],"loss_changes":[2.4467582E4,3.530407E4,2.464299E4,2.566919E3,8.231395E3,5.944776E4,2.2248973E4,1.5366997E3,1.5501514E3,1.0387086E4,2.4214518E4,2.8931465E4,5.1388984E3,9.477791E3,1.3354547E4,2.7229346E2,6.1841797E2,0E0,0E0,7.242282E3,5.117801E3,9.739844E1,2.5953662E2,4.418961E3,5.894214E3,0E0,3.2369824E2,8.407744E2,8.207588E3,5.5445234E3,2.4682979E3,0E0,0E0,0E0,0E0,0E0,0E0,0E0,0E0,0E0,0E0,0E0,0E0,0E0,0E0,0E0,0E0,0E0,0E0,0E0,0E0,0E0,0E0,0E0,0E0,0E0,0E0],"parents":[2147483647,0,0,1,1,2,2,3,3,4,4,5,5,6,6,7,7,8,8,9,9,10,10,11,11,12,12,13,13,14,14,15,15,16,16,19,19,20,20,21,21,22,22,23,23,24,24,26,26,27,27,28,28,29,29,30,30],"right_children":[2,4,6,8,10,12,14,16,18,20,22,24,26,28,30,32,34,-1,-1,36,38,40,42,44,46,-1,48,50,52,54,56,-1,-1,-1,-1,-1,-1,-1,-1,-1,-1,-1,-1,-1,-1,-1,-1,-1,-1,-1,-1,-1,-1,-1,-1,-1,-1],"split_conditions":[-5.301047E-1,-4.7918636E-1,7.372098E-2,-2.2530179E-1,6.898104E-1,1.9847673E0,4.272011E-1,-3.9702785E-1,-1.9774473E-1,6.2662834E-1,1.3638381E0,-1.5255575E-1,-4.7918636E-1,-3.6692005E-1,1.3638381E0,-1.0431194E0,2.7412395E0,-4.512253E-1,-1.015463E0,-8.62584E-1,-1.1613255E0,2.7412395E0,2.7412395E0,-1.2874388E-2,-7.678107E-1,1.7724326E0,-8.799548E-1,6.732764E-2,1.3638381E0,2.3495758E-1,1.9847673E0,-4.4591805E-1,-2.7165598E-1,9.464107E-2,-2.35006E-1,4.3143553E-1,-1.1116006E-1,4.701158E-1,2.1032837E-1,9.226262E-1,7.0580876E-1,-1.1815326E-1,-3.1185532E-1,-2.5216395E-1,-6.689157E-1,-2.1964844E-1,2.2396046E-1,1.0981091E0,5.943178E-1,-1.4263062E-1,-2.641466E-1,-5.353826E-2,2.1682566E-1,-6.2026817E-1,-3.2203555E-1,-3.80946E-2,-3.3147517E-1],"split_indices":[1,4,4,2,0,1,1,0,0,4,4,1,4,2,4,0,0,0,0,2,0,0,0,2,0,0,0,1,4,2,1,0,0,0,0,0,0,0,0,0,0,0,0,0,0,0,0,0,0,0,0,0,0,0,0,0,0],"split_type":[0,0,0,0,0,0,0,0,0,0,0,0,0,0,0,0,0,0,0,0,0,0,0,0,0,0,0,0,0,0,0,0,0,0,0,0,0,0,0,0,0,0,0,0,0,0,0,0,0,0,0,0,0,0,0,0,0],"sum_hessian":[2.195E3,6.61E2,1.534E3,9.2E1,5.69E2,4.56E2,1.078E3,6.7E1,2.5E1,4.78E2,9.1E1,4.26E2,3E1,6.93E2,3.85E2,4.8E1,1.9E1,1.8E1,7E0,1.48E2,3.3E2,6.3E1,2.8E1,1.15E2,3.11E2,1.6E1,1.4E1,2.69E2,4.24E2,2.33E2,1.52E2,2.5E1,2.3E1,1.1E1,8E0,2.6E1,1.22E2,9.8E1,2.32E2,3.2E1,3.1E1,1.4E1,1.4E1,8.3E1,3.2E1,2.9E1,2.82E2,6E0,8E0,1.97E2,7.2E1,2.6E2,1.64E2,1.09E2,1.24E2,1.2E2,3.2E1],"tree_param":{"num_deleted":"0","num_feature":"8","num_nodes":"57","size_leaf_vector":"1"}},{"base_weights":[-1.13072544E-1,-7.4656117E-1,1.5310398E1,4.5139923E0,-2.3410914E0,2.6421091E1,-7.8220587E0,2.466876E0,2.5347816E1,-3.308438E0,7.1996565E0,6.4910626E-1,2.978162E1,-3.3124977E-1,-3.0101147E0,-1.3766073E-2,1.4116648E1,1.7598587E0,1.7459682E1,-1.9207788E0,-1.1671503E1,2.5711432E-1,1.3778208E1,9.153271E-1,3.7684786E-1,-1.0851916E-1,6.588653E-3,-3.373566E-1,6.2899396E-2,3.733565E-1,6.4935136E-1,6.4286387E-1,3.0629176E-1,-4.003886E-1,-4.4392925E-2,-5.2629375E-1,-1.6204606E-1,-3.8064876E-1,8.90198E-2,1.8903406E-1,4.8873582E-1],"categories":[],"categories_nodes":[],"categories_segments":[],"categories_sizes":[],"default_left":[0,0,0,0,0,0,0,0,0,0,0,0,0,0,0,0,0,0,0,0,0,0,0,0,0,0,0,0,0,0,0,0,0,0,0,0,0,0,0,0,0],"id":15,"left_children":[1,3,5,7,9,11,13,15,17,19,21,-1,23,-1,25,27,29,-1,31,33,35,37,39,-1,-1,-1,-1,-1,-1,-1,-1,-1,-1,-1,-1,-1,-1,-1,-1,-1,-1],"loss_changes":[2.1545816E4,1.7776588E4,2.2567197E4,2.0963555E4,1.5030516E4,3.041914E2,4.16047E2,1.3004705E4,1.0538387E4,1.7118297E4,6.847238E3,0E0,1.859961E1,0E0,2.6288269E1,8.841094E3,7.246953E2,0E0,8.4592676E2,6.369468E3,7.6363633E3,2.6339258E3,1.3441602E3,0E0,0E0,0E0,0E0,0E0,0E0,0E0,0E0,0E0,0E0,0E0,0E0,0E0,0E0,0E0,0E0,0E0,0E0],"parents":[2147483647,0,0,1,1,2,2,3,3,4,4,5,5,6,6,7,7,8,8,9,9,10,10,12,12,14,14,15,15,16,16,18,18,19,19,20,20,21,21,22,22],"right_children":[2,4,6,8,10,12,14,16,18,20,22,-1,24,-1,26,28,30,-1,32,34,36,38,40,-1,-1,-1,-1,-1,-1,-1,-1,-1,-1,-1,-1,-1,-1,-1,-1,-1,-1],"split_conditions":[2.2182875E0,-7.249884E-1,1.3638381E0,7.660261E-1,1.7180781E0,-1.0750114E0,-1.0750114E0,1.3638381E0,-2.8119799E-2,7.660261E-1,-7.897071E-2,6.4910626E-1,1.7993684E0,-3.3124977E-1,9.6953845E-1,-1.2255796E0,-2.2530179E-1,1.7598587E0,1.828163E0,-6.751552E-1,1.1664869E0,1.5449265E0,1.3638381E0,9.153271E-1,3.7684786E-1,-1.0851916E-1,6.588653E-3,-3.373566E-1,6.2899396E-2,3.733565E-1,6.4935136E-1,6.4286387E-1,3.0629176E-1,-4.003886E-1,-4.4392925E-2,-5.2629375E-1,-1.6204606E-1,-3.8064876E-1,8.90198E-2,1.8903406E-1,4.8873582E-1],"split_indices":[7,7,4,2,6,2,2,4,6,2,7,0,5,0,5,7,2,0,2,7,6,2,4,0,0,0,0,0,0,0,0,0,0,0,0,0,0,0,0,0,0],"split_type":[0,0,0,0,0,0,0,0,0,0,0,0,0,0,0,0,0,0,0,0,0,0,0,0,0,0,0,0,0,0,0,0,0,0,0,0,0,0,0,0,0],"sum_hessian":[2.203E3,2.117E3,8.6E1,4.92E2,1.625E3,5.8E1,2.8E1,4.49E2,4.3E1,1.476E3,1.49E2,2.7E1,3.1E1,1.6E1,1.2E1,3.71E2,7.8E1,7E0,3.6E1,1.267E3,2.09E2,7.3E1,7.6E1,2.9E1,2E0,1E1,2E0,5.8E1,3.13E2,6.6E1,1.2E1,2.2E1,1.4E1,4.6E1,1.221E3,1.07E2,1.02E2,1.2E1,6.1E1,2E1,5.6E1],"tree_param":{"num_deleted":"0","num_feature":"8","num_nodes":"41","size_leaf_vector":"1"}},{"base_weights":[-1.4172663E-1,5.1130342E0,-1.70293E0,2.9251795E0,3.6677147E1,-2.9076753E0,8.076004E0,2.7349034E-1,1.4094954E1,1.5073514E0,1.2982128E1,-5.080338E0,1.5506924E0,1.3832975E1,-7.095628E0,-1.0912709E0,1.6641195E1,2.7418023E-1,1.6219835E1,1.2782855E-1,5.370073E-1,1.075994E1,-5.6331763E0,8.930488E0,-3.6231384E0,7.503578E0,7.359071E-1,-5.5558643E0,-3.1262004E-1,-4.5470345E-1,8.499806E-3,6.264379E-1,2.9449192E-1,6.6932666E-1,4.376413E-1,7.271742E-2,4.099186E-1,-1.4951716E-1,-5.379936E-1,4.5895573E-1,1.623281E-1,-2.7524176E-1,-1.2540089E-2,3.865943E-1,1.04334585E-1,-1.9199468E-1,-1.0516478E-1],"categories":[],"categories_nodes":[],"categories_segments":[],"categories_sizes":[],"default_left":[0,0,0,0,0,0,0,0,0,0,0,0,0,0,0,0,0,0,0,0,0,0,0,0,0,0,0,0,0,0,0,0,0,0,0,0,0,0,0,0,0,0,0,0,0,0,0],"id":16,"left_children":[1,3,5,7,9,11,13,15,17,-1,19,21,23,25,27,29,31,-1,33,-1,-1,35,37,39,41,43,-1,45,-1,-1,-1,-1,-1,-1,-1,-1,-1,-1,-1,-1,-1,-1,-1,-1,-1,-1,-1],"loss_changes":[1.7728809E4,3.407627E4,1.9650836E4,1.3739254E4,9.635449E3,1.43826875E4,1.608186E4,8.417252E3,7.889375E2,0E0,4.813208E2,8.800215E3,1.86269E4,8.820994E3,2.0321313E2,6.732673E3,6.342119E2,0E0,2.8082812E2,0E0,0E0,7.8994946E2,7.6171055E3,4.422161E3,5.1029243E3,1.7971538E3,0E0,4.159143E1,0E0,0E0,0E0,0E0,0E0,0E0,0E0,0E0,0E0,0E0,0E0,0E0,0E0,0E0,0E0,0E0,0E0,0E0,0E0],"parents":[2147483647,0,0,1,1,2,2,3,3,4,4,5,5,6,6,7,7,8,8,10,10,11,11,12,12,13,13,14,14,15,15,16,16,18,18,21,21,22,22,23,23,24,24,25,25,27,27],"right_children":[2,4,6,8,10,12,14,16,18,-1,20,22,24,26,28,30,32,-1,34,-1,-1,36,38,40,42,44,-1,46,-1,-1,-1,-1,-1,-1,-1,-1,-1,-1,-1,-1,-1,-1,-1,-1,-1,-1,-1],"split_conditions":[-7.249884E-1,1.9847673E0,1.3280721E0,1.3638381E0,-9.282578E-1,1.3638381E0,1.3638381E0,7.660261E-1,-6.855612E-1,1.5073514E0,-8.799548E-1,-8.5462713E-1,-1.4265746E-1,1.6250427E0,2.7412395E0,-1.2993774E0,-6.892593E-1,2.7418023E-1,-1.3128716E0,1.2782855E-1,5.370073E-1,-4.7918636E-1,1.8999249E0,-2.7048686E-1,-3.6692005E-1,1.3485308E0,7.359071E-1,2.719013E0,-3.1262004E-1,-4.5470345E-1,8.499806E-3,6.264379E-1,2.9449192E-1,6.6932666E-1,4.376413E-1,7.271742E-2,4.099186E-1,-1.4951716E-1,-5.379936E-1,4.5895573E-1,1.623281E-1,-2.7524176E-1,-1.2540089E-2,3.865943E-1,1.04334585E-1,-1.9199468E-1,-1.0516478E-1],"split_indices":[7,1,0,4,7,4,4,2,2,0,0,1,1,7,0,7,0,0,0,0,0,4,1,0,2,0,0,0,0,0,0,0,0,0,0,0,0,0,0,0,0,0,0,0,0,0,0],"split_type":[0,0,0,0,0,0,0,0,0,0,0,0,0,0,0,0,0,0,0,0,0,0,0,0,0,0,0,0,0,0,0,0,0,0,0,0,0,0,0,0,0,0,0,0,0,0,0],"sum_hessian":[2.159E3,4.94E2,1.665E3,4.63E2,3.1E1,1.483E3,1.82E2,3.75E2,8.8E1,1.9E1,1.2E1,9.97E2,4.86E2,1.32E2,5E1,3.47E2,2.8E1,2.8E1,6E1,5E0,7E0,3.3E1,9.64E2,2E2,2.86E2,8.4E1,4.8E1,3.6E1,1.4E1,3E1,3.17E2,1.6E1,1.2E1,1E1,5E1,9E0,2.4E1,9.17E2,4.7E1,7E1,1.3E2,1.04E2,1.82E2,3.5E1,4.9E1,2.4E1,1.2E1],"tree_param":{"num_deleted":"0","num_feature":"8","num_nodes":"47","size_leaf_vector":"1"}},{"base_weights":[-2.1365038E-1,-8.665145E-1,1.5549771E1,4.9698505E0,-2.3715656E0,2.5117842E1,-5.934149E0,2.4149878E0,3.8187733E1,-1.3990558E0,-9.48955E0,6.203775E-1,2.7773296E1,-2.908558E-1,-3.1514642E0,-1.7048647E0,1.0450677E1,4.859858E1,3.483082E0,-9.416663E0,-3.373573E-1,2.2833708E1,-1.3292384E1,8.5203075E-1,3.5459277E-1,-3.6287272E0,8.560176E-3,-1.2193575E-1,7.60316E-1,3.9252082E-1,1.503077E-1,1.623651E0,9.443251E-1,5.1523406E-2,1.259692E-1,-2.1173443E-1,-1.3794208E0,2.376902E-2,-1.5717106E-1,9.6228683E-1,4.4035804E-1,-5.8434266E-1,-1.7391221E-1,-6.409411E-2,-1.3158537E-1],"categories":[],"categories_nodes":[],"categories_segments":[],"categories_sizes":[],"default_left":[0,0,0,0,0,0,0,0,0,0,0,0,0,0,0,0,0,0,0,0,0,0,0,0,0,0,0,0,0,0,0,0,0,0,0,0,0,0,0,0,0,0,0,0,0],"id":17,"left_children":[1,3,5,7,9,11,13,15,17,19,21,-1,23,-1,25,27,29,31,33,35,37,39,41,-1,-1,43,-1,-1,-1,-1,-1,-1,-1,-1,-1,-1,-1,-1,-1,-1,-1,-1,-1,-1,-1],"loss_changes":[2.1995848E4,1.8036611E4,1.7621621E4,3.5636844E4,1.1283931E4,1.2107422E2,2.5202264E2,1.2995311E4,1.0669871E4,1.2228973E4,2.4395834E4,0E0,4.796875E0,0E0,2.891983E1,1.6697727E4,1.839875E3,4.713047E2,2.9005127E0,1.4165311E4,7.036419E3,1.1120137E3,8.0471074E3,0E0,0E0,7.5837708E0,0E0,0E0,0E0,0E0,0E0,0E0,0E0,0E0,0E0,0E0,0E0,0E0,0E0,0E0,0E0,0E0,0E0,0E0,0E0],"parents":[2147483647,0,0,1,1,2,2,3,3,4,4,5,5,6,6,7,7,8,8,9,9,10,10,12,12,14,14,15,15,16,16,17,17,18,18,19,19,20,20,21,21,22,22,25,25],"right_children":[2,4,6,8,10,12,14,16,18,20,22,-1,24,-1,26,28,30,32,34,36,38,40,42,-1,-1,44,-1,-1,-1,-1,-1,-1,-1,-1,-1,-1,-1,-1,-1,-1,-1,-1,-1,-1,-1],"split_conditions":[2.2182875E0,-7.6560086E-1,1.3638381E0,1.9847673E0,1.6842836E0,-9.3169236E-1,-9.3169236E-1,6.2662834E-1,7.372098E-2,-4.7918636E-1,7.372098E-2,6.203775E-1,1.7993684E0,-2.908558E-1,9.6953845E-1,-7.7868074E-1,-8.781657E-1,-4.7918636E-1,-5.546389E-1,2.6778727E0,1.2831522E0,-4.7918636E-1,1.3638381E0,8.5203075E-1,3.5459277E-1,-2.8367403E-1,8.560176E-3,-1.2193575E-1,7.60316E-1,3.9252082E-1,1.503077E-1,1.623651E0,9.443251E-1,5.1523406E-2,1.259692E-1,-2.1173443E-1,-1.3794208E0,2.376902E-2,-1.5717106E-1,9.6228683E-1,4.4035804E-1,-5.8434266E-1,-1.7391221E-1,-6.409411E-2,-1.3158537E-1],"split_indices":[7,7,4,1,1,1,1,4,4,4,4,0,5,0,5,7,7,4,5,2,7,4,4,0,0,5,0,0,0,0,0,0,0,0,0,0,0,0,0,0,0,0,0,0,0],"split_type":[0,0,0,0,0,0,0,0,0,0,0,0,0,0,0,0,0,0,0,0,0,0,0,0,0,0,0,0,0,0,0,0,0,0,0,0,0,0,0,0,0,0,0,0,0],"sum_hessian":[2.135E3,2.051E3,8.4E1,4.2E2,1.631E3,5.8E1,2.6E1,3.91E2,2.9E1,1.436E3,1.95E2,2.5E1,3.3E1,1E1,1.6E1,2.59E2,1.32E2,2.2E1,7E0,1.67E2,1.269E3,2E1,1.75E2,3.1E1,2E0,1.4E1,2E0,2.39E2,2E1,8.8E1,4.4E1,1.5E1,7E0,3E0,4E0,1.58E2,9E0,1.032E3,2.37E2,8E0,1.2E1,9.5E1,8E1,6E0,8E0],"tree_param":{"num_deleted":"0","num_feature":"8","num_nodes":"45","size_leaf_vector":"1"}},{"base_weights":[2.7088517E-1,4.320022E0,-1.3955044E0,-1.0903413E1,6.780069E0,3.8113778E0,-3.4535456E0,-7.7291694E0,-2.0813858E1,5.583624E0,1.3525875E1,2.4403903E-1,3.0946346E1,-4.9877663E0,6.791354E0,-1.0951917E1,-8.075057E-1,-4.234005E-1,-9.659604E-1,2.3931563E0,1.2265644E1,2.4669022E1,-7.6898417E0,-1.1518677E1,5.4083166E0,4.3137062E1,1.6542517E1,-2.7299683E0,-1.0827747E1,1.5111245E0,1.326685E1,-3.431297E-1,-1.9626921E-1,1.1125949E-1,-2.1148118E-1,1.0617238E-1,-2.1848288E-1,4.260489E-1,5.820627E-2,7.7056694E-1,4.6839586E-1,-7.156656E-2,-3.1068054E-1,-2.5767285E-1,-9.377352E-1,1.2386607E-1,4.782813E-1,9.1096616E-1,1.636656E0,-2.9630286E-1,7.092352E-1,3.3700593E-2,-1.2123655E-1,-4.5693663E-1,-1.594741E-1,-6.3454923E-3,1.8421645E-1,1.9718188E-1,5.6450623E-1],"categories":[],"categories_nodes":[],"categories_segments":[],"categories_sizes":[],"default_left":[0,0,0,0,0,0,0,0,0,0,0,0,0,0,0,0,0,0,0,0,0,0,0,0,0,0,0,0,0,0,0,0,0,0,0,0,0,0,0,0,0,0,0,0,0,0,0,0,0,0,0,0,0,0,0,0,0,0,0],"id":18,"left_children":[1,3,5,7,9,11,13,15,17,19,21,23,25,27,29,31,33,-1,-1,35,37,39,41,43,45,47,49,51,53,55,57,-1,-1,-1,-1,-1,-1,-1,-1,-1,-1,-1,-1,-1,-1,-1,-1,-1,-1,-1,-1,-1,-1,-1,-1,-1,-1,-1,-1],"loss_changes":[1.47424375E4,2.3929805E4,1.6601498E4,2.6389023E3,4.3554453E3,4.248748E4,1.7480781E4,1.5303232E3,1.1475342E3,9.947829E3,1.9575307E4,2.3692465E4,8.241652E3,1.2707629E4,4.937807E3,2.5841309E1,6.744963E2,0E0,0E0,3.5517139E3,2.99092E3,9.607031E1,3.854181E2,6.612997E3,3.5867666E3,2.2807305E3,4.922034E3,3.5313013E3,6.448123E3,6.472605E2,2.2912373E3,0E0,0E0,0E0,0E0,0E0,0E0,0E0,0E0,0E0,0E0,0E0,0E0,0E0,0E0,0E0,0E0,0E0,0E0,0E0,0E0,0E0,0E0,0E0,0E0,0E0,0E0,0E0,0E0],"parents":[2147483647,0,0,1,1,2,2,3,3,4,4,5,5,6,6,7,7,8,8,9,9,10,10,11,11,12,12,13,13,14,14,15,15,16,16,19,19,20,20,21,21,22,22,23,23,24,24,25,25,26,26,27,27,28,28,29,29,30,30],"right_children":[2,4,6,8,10,12,14,16,18,20,22,24,26,28,30,32,34,-1,-1,36,38,40,42,44,46,48,50,52,54,56,58,-1,-1,-1,-1,-1,-1,-1,-1,-1,-1,-1,-1,-1,-1,-1,-1,-1,-1,-1,-1,-1,-1,-1,-1,-1,-1,-1,-1],"split_conditions":[-5.301047E-1,-4.7918636E-1,7.372098E-2,-2.2530179E-1,6.898104E-1,1.8129613E0,1.5449265E0,-3.9702785E-1,-1.9774473E-1,1.3638381E0,1.3638381E0,-1.5255575E-1,-4.7918636E-1,6.265809E-1,1.3638381E0,1.1219562E0,2.7412395E0,-4.234005E-1,-9.659604E-1,1.26169E0,-1.9774473E-1,1.0711503E0,2.7412395E0,6.774341E-1,9.430489E-1,1.9847673E0,-2.6070637E-1,-3.856619E-1,1.3638381E0,-2.7048686E-1,-6.576872E-1,-3.431297E-1,-1.9626921E-1,1.1125949E-1,-2.1148118E-1,1.0617238E-1,-2.1848288E-1,4.260489E-1,5.820627E-2,7.7056694E-1,4.6839586E-1,-7.156656E-2,-3.1068054E-1,-2.5767285E-1,-9.377352E-1,1.2386607E-1,4.782813E-1,9.1096616E-1,1.636656E0,-2.9630286E-1,7.092352E-1,3.3700593E-2,-1.2123655E-1,-4.5693663E-1,-1.594741E-1,-6.3454923E-3,1.8421645E-1,1.9718188E-1,5.6450623E-1],"split_indices":[1,4,4,2,0,1,2,0,0,4,4,1,4,1,4,5,0,0,0,2,0,5,0,0,2,1,2,0,4,0,0,0,0,0,0,0,0,0,0,0,0,0,0,0,0,0,0,0,0,0,0,0,0,0,0,0,0,0,0],"split_type":[0,0,0,0,0,0,0,0,0,0,0,0,0,0,0,0,0,0,0,0,0,0,0,0,0,0,0,0,0,0,0,0,0,0,0,0,0,0,0,0,0,0,0,0,0,0,0,0,0,0,0,0,0,0,0,0,0,0,0],"sum_hessian":[2.183E3,6.36E2,1.547E3,8.8E1,5.48E2,4.38E2,1.109E3,6.8E1,2E1,4.67E2,8.1E1,3.88E2,5E1,9.65E2,1.44E2,4.6E1,2.2E1,1.4E1,6E0,3.17E2,1.5E2,5.3E1,2.8E1,1.18E2,2.7E2,2.6E1,2.4E1,6.97E2,2.68E2,8E1,6.4E1,4E1,6E0,1.3E1,9E0,2.84E2,3.3E1,1.26E2,2.4E1,4.6E1,7E0,1E1,1.8E1,1.04E2,1.4E1,2.42E2,2.8E1,1.4E1,1.2E1,5E0,1.9E1,1.77E2,5.2E2,1.48E2,1.2E2,5.9E1,2.1E1,3E1,3.4E1],"tree_param":{"num_deleted":"0","num_feature":"8","num_nodes":"59","size_leaf_vector":"1"}},{"base_weights":[-3.5178107E-1,8.080855E0,-1.5305426E0,3.8456793E0,4.6375317E1,4.9576917E0,-3.333998E0,-2.1185129E0,1.3787465E1,7.6371163E-1,1.582266E0,7.1232758E0,-2.3520608E0,-4.173564E0,9.259227E0,-3.5255885E0,6.048319E-1,2.9559495E0,1.4969061E1,8.407608E0,-8.11128E0,-1.6200033E1,7.761956E0,-1.8312952E1,-3.637661E0,3.2467525E0,1.6035147E1,-3.0966106E-1,9.664561E-3,2.95196E-2,1.2319781E-1,3.8406992E-1,5.624433E-1,1.6679202E-1,6.9222057E-1,-1.23011366E-1,-3.1535572E-1,-8.809295E-1,-4.044132E-1,1.2593181E-1,4.2882898E-1,-7.363768E-1,-1.4309506E-1,-1.0013833E-1,-6.3793766E-1,6.0096923E-3,1.8855508E-1,6.108287E-1,3.8152778E-1],"categories":[],"categories_nodes":[],"categories_segments":[],"categories_sizes":[],"default_left":[0,0,0,0,0,0,0,0,0,0,0,0,0,0,0,0,0,0,0,0,0,0,0,0,0,0,0,0,0,0,0,0,0,0,0,0,0,0,0,0,0,0,0,0,0,0,0,0,0],"id":19,"left_children":[1,3,5,7,9,11,13,15,17,-1,-1,19,21,23,25,27,-1,29,31,33,35,37,39,41,43,45,47,-1,-1,-1,-1,-1,-1,-1,-1,-1,-1,-1,-1,-1,-1,-1,-1,-1,-1,-1,-1,-1,-1],"loss_changes":[2.1234412E4,4.231381E4,2.1944652E4,1.4082058E4,2.120125E3,6.4753477E3,1.5549006E4,4.742088E3,1.0948184E3,0E0,0E0,6.2315586E3,1.3291256E4,1.0359801E4,3.696022E3,3.6906113E3,0E0,1.8649437E1,4.1503516E2,1.2026227E4,1.9760925E2,1.0362158E3,1.2205483E3,4.1035938E3,6.939674E3,4.61557E2,3.581543E2,0E0,0E0,0E0,0E0,0E0,0E0,0E0,0E0,0E0,0E0,0E0,0E0,0E0,0E0,0E0,0E0,0E0,0E0,0E0,0E0,0E0,0E0],"parents":[2147483647,0,0,1,1,2,2,3,3,4,4,5,5,6,6,7,7,8,8,11,11,12,12,13,13,14,14,15,15,17,17,18,18,19,19,20,20,21,21,22,22,23,23,24,24,25,25,26,26],"right_children":[2,4,6,8,10,12,14,16,18,-1,-1,20,22,24,26,28,-1,30,32,34,36,38,40,42,44,46,48,-1,-1,-1,-1,-1,-1,-1,-1,-1,-1,-1,-1,-1,-1,-1,-1,-1,-1,-1,-1,-1,-1],"split_conditions":[-9.7394687E-1,1.8129613E0,-5.301047E-1,-2.1934828E-1,1.9847673E0,-2.2530179E-1,2.2879543E0,3.7346753E-1,-1.2219858E0,7.6371163E-1,1.582266E0,3.4988878E0,1.1664869E0,-8.9889807E-1,-6.576872E-1,-9.210273E-1,6.048319E-1,-5.715742E-1,4.442374E-1,1.4849194E0,2.7412395E0,-3.8848263E-1,1.952733E0,-7.840299E-2,2.6778727E0,-4.8787954E-1,-2.7048686E-1,-3.0966106E-1,9.664561E-3,2.95196E-2,1.2319781E-1,3.8406992E-1,5.624433E-1,1.6679202E-1,6.9222057E-1,-1.23011366E-1,-3.1535572E-1,-8.809295E-1,-4.044132E-1,1.2593181E-1,4.2882898E-1,-7.363768E-1,-1.4309506E-1,-1.0013833E-1,-6.3793766E-1,6.0096923E-3,1.8855508E-1,6.108287E-1,3.8152778E-1],"split_indices":[7,1,1,6,1,2,6,1,7,0,0,7,6,0,0,6,0,5,6,7,0,6,6,6,2,7,0,0,0,0,0,0,0,0,0,0,0,0,0,0,0,0,0,0,0,0,0,0,0],"split_type":[0,0,0,0,0,0,0,0,0,0,0,0,0,0,0,0,0,0,0,0,0,0,0,0,0,0,0,0,0,0,0,0,0,0,0,0,0,0,0,0,0,0,0,0,0,0,0,0,0],"sum_hessian":[2.134E3,2.61E2,1.873E3,2.36E2,2.5E1,4.07E2,1.466E3,1.48E2,8.8E1,7E0,1.8E1,3.14E2,9.3E1,1.375E3,9.1E1,1.4E2,8E0,9E0,7.9E1,2.9E2,2.4E1,3.9E1,5.4E1,4.9E1,1.326E3,4.9E1,4.2E1,5E1,9E1,4E0,5E0,5.3E1,2.6E1,2.44E2,4.6E1,1E1,1.4E1,5E0,3.4E1,3.6E1,1.8E1,3.3E1,1.6E1,1.305E3,2.1E1,2.5E1,2.4E1,1.6E1,2.6E1],"tree_param":{"num_deleted":"0","num_feature":"8","num_nodes":"49","size_leaf_vector":"1"}},{"base_weights":[6.0004336E-1,6.7006426E0,-9.390395E-1,-7.756543E0,9.052365E0,1.50586E1,-1.7144605E0,-3.7269437E-1,1.5015842E0,1.0170579E1,-6.606896E0,3.539379E0,4.6156517E1,-3.1541648E0,1.6653751E0,3.9343054E0,-5.235937E0,7.2975616E0,6.8334323E-1,-3.4320056E0,-2.7820688E-1,-5.009901E0,1.6766975E1,6.828392E-1,1.5613481E0,-4.081174E0,9.73129E0,9.526581E0,-2.6623793E0,2.046617E-1,6.0045123E-2,-8.1585884E-2,-2.0537502E-1,4.4014677E-2,2.923974E-1,-1.3640158E-1,-7.294159E-2,-2.3499791E-1,1.7635146E-2,5.674646E-1,3.112223E-1,-3.6343133E-1,-8.958182E-2,4.4808006E-1,1.744173E-1,4.6347395E-1,1.3877754E-1,1.0152926E-1,-2.0396872E-1],"categories":[],"categories_nodes":[],"categories_segments":[],"categories_sizes":[],"default_left":[0,0,0,0,0,0,0,0,0,0,0,0,0,0,0,0,0,0,0,0,0,0,0,0,0,0,0,0,0,0,0,0,0,0,0,0,0,0,0,0,0,0,0,0,0,0,0,0,0],"id":20,"left_children":[1,3,5,7,9,11,13,-1,15,17,19,21,23,25,27,29,31,33,-1,35,-1,37,39,-1,-1,41,43,45,47,-1,-1,-1,-1,-1,-1,-1,-1,-1,-1,-1,-1,-1,-1,-1,-1,-1,-1,-1,-1],"loss_changes":[1.9808385E4,1.4519914E4,2.0928082E4,2.6108948E3,6.476006E3,2.7778088E4,7.8297227E3,0E0,3.6480054E2,1.2221574E4,1.798324E2,6.643013E3,1.7083672E3,1.3513599E4,1.638964E4,7.5648834E1,5.689499E0,3.9837559E3,0E0,3.4454346E0,0E0,5.735649E2,1.196792E2,0E0,0E0,9.227348E3,1.4627153E3,4.891709E3,7.801928E3,0E0,0E0,0E0,0E0,0E0,0E0,0E0,0E0,0E0,0E0,0E0,0E0,0E0,0E0,0E0,0E0,0E0,0E0,0E0,0E0],"parents":[2147483647,0,0,1,1,2,2,3,3,4,4,5,5,6,6,8,8,9,9,10,10,11,11,12,12,13,13,14,14,15,15,16,16,17,17,19,19,21,21,22,22,25,25,26,26,27,27,28,28],"right_children":[2,4,6,8,10,12,14,-1,16,18,20,22,24,26,28,30,32,34,-1,36,-1,38,40,-1,-1,42,44,46,48,-1,-1,-1,-1,-1,-1,-1,-1,-1,-1,-1,-1,-1,-1,-1,-1,-1,-1,-1,-1],"split_conditions":[-8.0301464E-1,-4.7918636E-1,-9.7394687E-1,-1.9774473E-1,3.4988878E0,1.8129613E0,1.3638381E0,-3.7269437E-1,2.7412395E0,-1.2146651E-1,2.7412395E0,3.7346753E-1,1.9847673E0,1.3280721E0,-1.4265746E-1,-3.6835057E-1,-1.651269E-1,6.2662834E-1,6.8334323E-1,-4.699624E-1,-2.7820688E-1,-6.3827884E-1,-6.892593E-1,6.828392E-1,1.5613481E0,-7.2588295E-1,7.372098E-2,-2.7048686E-1,-3.9172375E-1,2.046617E-1,6.0045123E-2,-8.1585884E-2,-2.0537502E-1,4.4014677E-2,2.923974E-1,-1.3640158E-1,-7.294159E-2,-2.3499791E-1,1.7635146E-2,5.674646E-1,3.112223E-1,-3.6343133E-1,-8.958182E-2,4.4808006E-1,1.744173E-1,4.6347395E-1,1.3877754E-1,1.0152926E-1,-2.0396872E-1],"split_indices":[1,4,7,0,7,1,4,0,0,0,0,1,1,0,1,5,5,4,0,5,0,1,0,0,0,0,4,0,0,0,0,0,0,0,0,0,0,0,0,0,0,0,0,0,0,0,0,0,0],"split_type":[0,0,0,0,0,0,0,0,0,0,0,0,0,0,0,0,0,0,0,0,0,0,0,0,0,0,0,0,0,0,0,0,0,0,0,0,0,0,0,0,0,0,0,0,0,0,0,0,0],"sum_hessian":[2.108E3,4.24E2,1.684E3,5.9E1,3.65E2,7.7E1,1.607E3,3.9E1,2E1,3.41E2,2.4E1,5.7E1,2E1,1.127E3,4.8E2,1.5E1,5E0,2.79E2,6.2E1,1.2E1,1.2E1,3.5E1,2.2E1,5E0,1.5E1,1.052E3,7.5E1,1.7E2,3.1E2,5E0,1E1,3E0,2E0,8.3E1,1.96E2,4E0,8E0,2.3E1,1.2E1,1.5E1,7E0,1.25E2,9.27E2,3.1E1,4.4E1,7.6E1,9.4E1,1.26E2,1.84E2],"tree_param":{"num_deleted":"0","num_feature":"8","num_nodes":"49","size_leaf_vector":"1"}},{"base_weights":[1.315522E-1,-6.8355376E-1,8.619341E0,6.8888726E0,-1.8721297E0,1.4039629E1,-6.003769E0,2.740842E0,3.7843784E1,-4.0004444E0,2.9027035E0,8.909388E0,2.190568E1,-5.249052E0,-2.4813019E-1,-3.6792727E0,1.336125E1,7.088069E-1,1.490863E0,-1.3220105E0,-6.5991917E0,8.257291E0,-2.3809426E0,1.708888E1,4.2858567E0,7.7293545E-1,5.0722456E-1,-2.1982196E-1,-1.2409132E-1,-4.0508887E-1,-4.3148454E-2,8.0042936E-2,4.2757228E-1,-6.518541E-2,4.236659E-1,-2.624792E-1,-1.1225857E-2,3.9313994E-2,3.0826223E-1,7.616545E-2,-1.8640684E-1,-4.5923475E-2,6.003696E-1,1.8291466E-1,-2.701651E-1],"categories":[],"categories_nodes":[],"categories_segments":[],"categories_sizes":[],"default_left":[0,0,0,0,0,0,0,0,0,0,0,0,0,0,0,0,0,0,0,0,0,0,0,0,0,0,0,0,0,0,0,0,0,0,0,0,0,0,0,0,0,0,0,0,0],"id":21,"left_children":[1,3,5,7,9,11,13,15,17,19,21,23,25,27,-1,29,31,-1,-1,33,35,37,39,41,43,-1,-1,-1,-1,-1,-1,-1,-1,-1,-1,-1,-1,-1,-1,-1,-1,-1,-1,-1,-1],"loss_changes":[1.4686835E4,1.744668E4,1.4826924E4,3.3665984E4,1.7033543E4,5.293082E3,4.3852173E1,1.5936088E4,4.0491523E3,8.058578E3,1.4646492E4,3.103483E3,5.8660547E2,6.450464E1,0E0,3.1947397E3,8.0055176E2,0E0,0E0,7.5470493E3,7.866791E3,3.5895469E3,4.937109E3,1.6636396E3,1.3790125E3,0E0,0E0,0E0,0E0,0E0,0E0,0E0,0E0,0E0,0E0,0E0,0E0,0E0,0E0,0E0,0E0,0E0,0E0,0E0,0E0],"parents":[2147483647,0,0,1,1,2,2,3,3,4,4,5,5,6,6,7,7,8,8,9,9,10,10,11,11,12,12,13,13,15,15,16,16,19,19,20,20,21,21,22,22,23,23,24,24],"right_children":[2,4,6,8,10,12,14,16,18,20,22,24,26,28,-1,30,32,-1,-1,34,36,38,40,42,44,-1,-1,-1,-1,-1,-1,-1,-1,-1,-1,-1,-1,-1,-1,-1,-1,-1,-1,-1,-1],"split_conditions":[1.3280721E0,-9.7394687E-1,1.3638381E0,1.6842836E0,1.3638381E0,1.6250427E0,2.7412395E0,-2.1934828E-1,1.9847673E0,-1.06592044E-1,-1.4265746E-1,1.0267344E0,2.7412395E0,1.3485308E0,-2.4813019E-1,-1.2993774E0,-1.2219858E0,7.088069E-1,1.490863E0,-1.439235E-1,1.1664869E0,-8.2717943E-1,-3.9172375E-1,-1.2867233E0,2.7412395E0,7.7293545E-1,5.0722456E-1,-2.1982196E-1,-1.2409132E-1,-4.0508887E-1,-4.3148454E-2,8.0042936E-2,4.2757228E-1,-6.518541E-2,4.236659E-1,-2.624792E-1,-1.1225857E-2,3.9313994E-2,3.0826223E-1,7.616545E-2,-1.8640684E-1,-4.5923475E-2,6.003696E-1,1.8291466E-1,-2.701651E-1],"split_indices":[0,7,4,1,4,7,0,6,1,6,1,7,0,0,0,7,7,0,0,6,6,2,0,6,0,0,0,0,0,0,0,0,0,0,0,0,0,0,0,0,0,0,0,0,0],"split_type":[0,0,0,0,0,0,0,0,0,0,0,0,0,0,0,0,0,0,0,0,0,0,0,0,0,0,0,0,0,0,0,0,0,0,0,0,0,0,0,0,0,0,0,0,0],"sum_hessian":[2.121E3,1.936E3,1.85E2,2.62E2,1.674E3,1.35E2,5E1,2.32E2,3E1,1.158E3,5.16E2,8.3E1,5.2E1,4E1,1E1,1.45E2,8.7E1,1.5E1,1.5E1,5.71E2,5.87E2,2.56E2,2.6E2,2.9E1,5.4E1,2.7E1,2.5E1,1.2E1,2.8E1,2.6E1,1.19E2,7E0,8E1,5.42E2,2.9E1,4.36E2,1.51E2,5.8E1,1.98E2,1.14E2,1.46E2,4E0,2.5E1,4.8E1,6E0],"tree_param":{"num_deleted":"0","num_feature":"8","num_nodes":"45","size_leaf_vector":"1"}},{"base_weights":[2.4931209E-1,4.7807174E0,-1.0963129E0,-7.5399737E0,6.842301E0,1.7846655E1,-1.8191837E0,-1.1826026E1,1.346295E0,7.8839545E0,-6.550297E0,2.7761097E0,3.5509224E1,-1.753224E1,-1.4352638E0,-4.442893E-1,-1.0021059E1,4.061574E0,-5.8281794E0,5.435404E0,2.1611616E1,-2.760944E0,-2.8525594E-1,-3.6532676E0,1.2221882E1,6.702278E-1,1.4124521E0,-6.982247E-1,-4.699767E0,6.63389E0,-2.0639787E0,-3.1160834E-1,-1.4314952E-1,1.5528339E-1,4.7121335E-2,-4.8605468E-2,-3.2696345E-1,-3.182504E-2,2.5009763E-1,7.5829756E-1,5.245784E-1,-1.5944573E-3,-1.1222295E-1,-2.59556E-1,2.6496456E-3,4.4964996E-1,2.4820507E-1,-9.383401E-2,-1.6801015E-1,-3.2339976E-3,5.828574E-1,-1.1598828E-1,5.3359E-2],"categories":[],"categories_nodes":[],"categories_segments":[],"categories_sizes":[],"default_left":[0,0,0,0,0,0,0,0,0,0,0,0,0,0,0,0,0,0,0,0,0,0,0,0,0,0,0,0,0,0,0,0,0,0,0,0,0,0,0,0,0,0,0,0,0,0,0,0,0,0,0,0,0],"id":22,"left_children":[1,3,5,7,9,11,13,15,17,19,21,23,25,27,29,-1,31,33,35,37,39,41,-1,43,45,-1,-1,-1,47,49,51,-1,-1,-1,-1,-1,-1,-1,-1,-1,-1,-1,-1,-1,-1,-1,-1,-1,-1,-1,-1,-1,-1],"loss_changes":[1.3102826E4,1.2548458E4,2.2722297E4,2.7200994E3,5.9387305E3,1.6138678E4,9.608831E3,1.100874E2,4.9120844E2,1.3058777E4,3.212511E2,2.1094846E3,3.2150781E3,2.6905713E3,7.9278804E3,0E0,1.3819824E1,4.184073E1,1.3170152E2,6.303669E3,4.501211E2,3.9598526E1,0E0,3.9352084E2,2.8915771E1,0E0,0E0,0E0,8.869324E-1,9.7492295E3,1.0035044E4,0E0,0E0,0E0,0E0,0E0,0E0,0E0,0E0,0E0,0E0,0E0,0E0,0E0,0E0,0E0,0E0,0E0,0E0,0E0,0E0,0E0,0E0],"parents":[2147483647,0,0,1,1,2,2,3,3,4,4,5,5,6,6,7,7,8,8,9,9,10,10,11,11,12,12,13,13,14,14,16,16,17,17,18,18,19,19,20,20,21,21,23,23,24,24,28,28,29,29,30,30],"right_children":[2,4,6,8,10,12,14,16,18,20,22,24,26,28,30,-1,32,34,36,38,40,42,-1,44,46,-1,-1,-1,48,50,52,-1,-1,-1,-1,-1,-1,-1,-1,-1,-1,-1,-1,-1,-1,-1,-1,-1,-1,-1,-1,-1,-1],"split_conditions":[-7.6130044E-1,-4.7918636E-1,-9.7394687E-1,-1.9774473E-1,3.4988878E0,1.6842836E0,-8.9889807E-1,-1.1683975E0,2.7412395E0,-1.2146651E-1,2.7412395E0,-7.09718E-1,1.9847673E0,1.3638381E0,-7.3286223E-1,-4.442893E-1,-8.1644803E-1,5.503204E-2,-1.651269E-1,6.2662834E-1,2.7412395E0,-2.8367403E-1,-2.8525594E-1,-6.3827884E-1,-6.892593E-1,6.702278E-1,1.4124521E0,-6.982247E-1,-4.699624E-1,-7.7868074E-1,1.3638381E0,-3.1160834E-1,-1.4314952E-1,1.5528339E-1,4.7121335E-2,-4.8605468E-2,-3.2696345E-1,-3.182504E-2,2.5009763E-1,7.5829756E-1,5.245784E-1,-1.5944573E-3,-1.1222295E-1,-2.59556E-1,2.6496456E-3,4.4964996E-1,2.4820507E-1,-9.383401E-2,-1.6801015E-1,-3.2339976E-3,5.828574E-1,-1.1598828E-1,5.3359E-2],"split_indices":[1,4,7,0,7,1,0,0,0,0,0,0,1,4,7,0,1,5,5,4,0,5,0,1,0,0,0,0,5,7,4,0,0,0,0,0,0,0,0,0,0,0,0,0,0,0,0,0,0,0,0,0,0],"split_type":[0,0,0,0,0,0,0,0,0,0,0,0,0,0,0,0,0,0,0,0,0,0,0,0,0,0,0,0,0,0,0,0,0,0,0,0,0,0,0,0,0,0,0,0,0,0,0,0,0,0,0,0,0],"sum_hessian":[2.147E3,4.91E2,1.656E3,7E1,4.21E2,6E1,1.596E3,4.7E1,2.3E1,3.91E2,3E1,3.3E1,2.7E1,3.7E1,1.559E3,1.5E1,3.2E1,1.7E1,6E0,3.33E2,5.8E1,1.4E1,1.6E1,2E1,1.3E1,1.4E1,1.3E1,2.5E1,1.2E1,1.12E2,1.447E3,2.9E1,3E0,1.1E1,6E0,4E0,2E0,1.03E2,2.3E2,2.8E1,3E1,4E0,1E1,8E0,1.2E1,6E0,7E0,6E0,6E0,7.4E1,3.8E1,9.85E2,4.62E2],"tree_param":{"num_deleted":"0","num_feature":"8","num_nodes":"53","size_leaf_vector":"1"}},{"base_weights":[-6.6632934E-2,4.7671432E0,-1.2771399E0,-7.610619E0,6.9801273E0,-1.8916521E0,8.7276E0,-1.1655428E1,4.5817253E-1,5.637881E-1,6.1723742E0,1.8686831E0,-3.524768E0,2.9298937E0,1.4240496E1,-2.4495174E-1,-1.2319664E1,4.411908E0,-2.2519709E-1,1.0501844E1,3.7868037E0,-9.802956E0,8.55348E0,-9.479439E-1,-1.1161828E1,1.2482915E0,2.285991E-1,2.9676914E-1,5.018002E-1,-4.083784E-1,-2.725341E-1,6.342355E-2,1.9336298E-1,2.1589918E-2,3.4106484E-1,-8.2995564E-2,1.7807734E-1,-1.8675059E-1,-5.772424E-1,1.8190737E-1,1.1516141E0,8.6242296E-2,-8.9027636E-2,-5.724092E-1,-2.3490693E-1,1.5968081E-1,-6.9104865E-2],"categories":[],"categories_nodes":[],"categories_segments":[],"categories_sizes":[],"default_left":[0,0,0,0,0,0,0,0,0,0,0,0,0,0,0,0,0,0,0,0,0,0,0,0,0,0,0,0,0,0,0,0,0,0,0,0,0,0,0,0,0,0,0,0,0,0,0],"id":23,"left_children":[1,3,5,7,9,11,13,15,17,-1,19,21,23,25,27,-1,29,31,-1,33,35,37,39,41,43,45,-1,-1,-1,-1,-1,-1,-1,-1,-1,-1,-1,-1,-1,-1,-1,-1,-1,-1,-1,-1,-1],"loss_changes":[1.2621534E4,1.1886377E4,1.062187E4,2.1593638E3,3.3858555E3,9.991956E3,3.1544917E3,1.4199219E0,7.573995E2,0E0,3.5234795E3,3.8548957E4,2.2305816E4,3.8483026E2,3.8586328E2,0E0,2.2739746E1,6.1135376E1,0E0,1.0265E3,3.1711926E3,5.9588574E3,2.309205E4,6.563208E3,7.3956133E3,5.621744E2,0E0,0E0,0E0,0E0,0E0,0E0,0E0,0E0,0E0,0E0,0E0,0E0,0E0,0E0,0E0,0E0,0E0,0E0,0E0,0E0,0E0],"parents":[2147483647,0,0,1,1,2,2,3,3,4,4,5,5,6,6,7,7,8,8,10,10,11,11,12,12,13,13,14,14,16,16,17,17,19,19,20,20,21,21,22,22,23,23,24,24,25,25],"right_children":[2,4,6,8,10,12,14,16,18,-1,20,22,24,26,28,-1,30,32,-1,34,36,38,40,42,44,46,-1,-1,-1,-1,-1,-1,-1,-1,-1,-1,-1,-1,-1,-1,-1,-1,-1,-1,-1,-1,-1],"split_conditions":[-8.0301464E-1,-4.7918636E-1,2.2879543E0,-1.9774473E-1,-9.667393E-1,7.372098E-2,-6.576872E-1,-1.5892215E0,2.7412395E0,5.637881E-1,1E0,-1.5255575E-1,6.265809E-1,4.165193E0,1.3638381E0,-2.4495174E-1,-1.0431194E0,-1.2146651E-1,-2.2519709E-1,-7.549404E-1,6.2662834E-1,-1.2874388E-2,1.9847673E0,-3.856619E-1,2.1567747E-1,2.5561314E0,2.285991E-1,2.9676914E-1,5.018002E-1,-4.083784E-1,-2.725341E-1,6.342355E-2,1.9336298E-1,2.1589918E-2,3.4106484E-1,-8.2995564E-2,1.7807734E-1,-1.8675059E-1,-5.772424E-1,1.8190737E-1,1.1516141E0,8.6242296E-2,-8.9027636E-2,-5.724092E-1,-2.3490693E-1,1.5968081E-1,-6.9104865E-2],"split_indices":[1,4,6,0,6,4,0,1,0,0,3,1,1,6,4,0,0,0,0,6,4,2,1,0,6,6,0,0,0,0,0,0,0,0,0,0,0,0,0,0,0,0,0,0,0,0,0],"split_type":[0,0,0,0,0,0,0,0,0,0,0,0,0,0,0,0,0,0,0,0,0,0,0,0,0,0,0,0,0,0,0,0,0,0,0,0,0,0,0,0,0,0,0,0,0,0,0],"sum_hessian":[2.155E3,4.31E2,1.724E3,6.5E1,3.66E2,1.625E3,9.9E1,4.3E1,2.2E1,2.2E1,3.44E2,4.92E2,1.133E3,4.9E1,5E1,9E0,3.4E1,1.5E1,7E0,1.21E2,2.23E2,1.79E2,3.13E2,8.48E2,2.85E2,3.7E1,1.2E1,2E1,3E1,2.2E1,1.2E1,8E0,7E0,1E1,1.11E2,5.5E1,1.68E2,1.31E2,4.8E1,2.9E2,2.3E1,2.93E2,5.55E2,8.3E1,2.02E2,1.7E1,2E1],"tree_param":{"num_deleted":"0","num_feature":"8","num_nodes":"47","size_leaf_vector":"1"}},{"base_weights":[2.593451E-2,-6.7054963E-1,7.667983E0,-2.2103264E0,3.2359471E0,1.3200945E1,-6.0481114E0,-2.8361256E0,9.658409E0,9.171097E0,-2.7106376E0,4.05558E0,1.5233334E1,-5.203422E0,-2.4740678E-1,1.5771849E0,-3.5268102E0,3.813679E1,-1.0434844E1,1.2528652E1,5.065732E0,-5.724914E0,2.453802E0,-3.2456436E0,1.0024088E1,9.729876E0,2.0352776E1,-3.4149914E0,-6.0042753E0,-1.5290657E-1,1.914823E-1,-2.0911658E-2,-1.6055219E-1,1.3756583E0,8.208386E-1,-4.4592995E-2,-4.1552386E-1,2.0227687E-1,4.344772E-1,6.8488255E-2,3.9275822E-1,-2.3611553E-1,-8.3414145E-2,1.6055177E-1,-3.283436E-1,4.1396413E-3,-1.7046708E-1,4.0394422E-1,1.7281343E-1,5.871652E-1,1.7084679E-1,7.034401E-1,4.9167302E-1,-1.1902883E-1,3.542906E-3,-2.5861654E-1,-1.4538798E-1],"categories":[],"categories_nodes":[],"categories_segments":[],"categories_sizes":[],"default_left":[0,0,0,0,0,0,0,0,0,0,0,0,0,0,0,0,0,0,0,0,0,0,0,0,0,0,0,0,0,0,0,0,0,0,0,0,0,0,0,0,0,0,0,0,0,0,0,0,0,0,0,0,0,0,0,0,0],"id":24,"left_children":[1,3,5,7,9,11,13,15,17,19,21,23,25,27,-1,29,31,33,35,37,39,41,43,45,47,49,51,53,55,-1,-1,-1,-1,-1,-1,-1,-1,-1,-1,-1,-1,-1,-1,-1,-1,-1,-1,-1,-1,-1,-1,-1,-1,-1,-1,-1,-1],"loss_changes":[1.159769E4,1.2019372E4,1.3891934E4,1.0670922E4,1.9965896E4,2.3545215E3,5.552417E1,4.157218E3,4.159803E4,3.8374004E3,4.4195225E3,1.1219698E3,2.7884805E3,3.8218506E1,0E0,5.96597E3,6.079583E3,1.2404609E3,1.2938071E3,1.6547148E3,2.8513594E3,1.1089678E3,4.135523E3,9.971846E1,1.2781653E2,1.993354E3,2.7820508E2,2.9756271E1,4.002368E1,0E0,0E0,0E0,0E0,0E0,0E0,0E0,0E0,0E0,0E0,0E0,0E0,0E0,0E0,0E0,0E0,0E0,0E0,0E0,0E0,0E0,0E0,0E0,0E0,0E0,0E0,0E0,0E0],"parents":[2147483647,0,0,1,1,2,2,3,3,4,4,5,5,6,6,7,7,8,8,9,9,10,10,11,11,12,12,13,13,15,15,16,16,17,17,18,18,19,19,20,20,21,21,22,22,23,23,24,24,25,25,26,26,27,27,28,28],"right_children":[2,4,6,8,10,12,14,16,18,20,22,24,26,28,-1,30,32,34,36,38,40,42,44,46,48,50,52,54,56,-1,-1,-1,-1,-1,-1,-1,-1,-1,-1,-1,-1,-1,-1,-1,-1,-1,-1,-1,-1,-1,-1,-1,-1,-1,-1,-1,-1],"split_conditions":[1.3280721E0,1.3638381E0,1.3638381E0,1.9847673E0,-1.4265746E-1,-4.7918636E-1,2.7412395E0,-8.5462713E-1,7.372098E-2,-2.7048686E-1,4.4738498E-1,-5.4394287E-1,2.719013E0,-2.8367403E-1,-2.4740678E-1,7.372098E-2,7.372098E-2,-4.7918636E-1,6.2662834E-1,-6.855612E-1,1.26169E0,-3.6692005E-1,1.6842836E0,-1.312563E-1,1.3485308E0,7.372098E-2,2.7412395E0,-3.8528585E-1,1.3485308E0,-1.5290657E-1,1.914823E-1,-2.0911658E-2,-1.6055219E-1,1.3756583E0,8.208386E-1,-4.4592995E-2,-4.1552386E-1,2.0227687E-1,4.344772E-1,6.8488255E-2,3.9275822E-1,-2.3611553E-1,-8.3414145E-2,1.6055177E-1,-3.283436E-1,4.1396413E-3,-1.7046708E-1,4.0394422E-1,1.7281343E-1,5.871652E-1,1.7084679E-1,7.034401E-1,4.9167302E-1,-1.1902883E-1,3.542906E-3,-2.5861654E-1,-1.4538798E-1],"split_indices":[0,4,4,1,1,4,0,1,4,0,2,2,0,5,0,4,4,4,4,2,2,2,1,5,0,4,0,5,0,0,0,0,0,0,0,0,0,0,0,0,0,0,0,0,0,0,0,0,0,0,0,0,0,0,0,0,0],"split_type":[0,0,0,0,0,0,0,0,0,0,0,0,0,0,0,0,0,0,0,0,0,0,0,0,0,0,0,0,0,0,0,0,0,0,0,0,0,0,0,0,0,0,0,0,0,0,0,0,0,0,0,0,0,0,0,0,0],"sum_hessian":[2.177E3,1.996E3,1.81E2,1.432E3,5.64E2,1.29E2,5.2E1,1.361E3,7.1E1,2.82E2,2.82E2,2.4E1,1.05E2,4E1,1.2E1,1.84E2,1.177E3,2.9E1,4.2E1,1.54E2,1.28E2,1.78E2,1.04E2,1.1E1,1.3E1,5.2E1,5.3E1,1.4E1,2.6E1,7.7E1,1.07E2,4.62E2,7.15E2,1.5E1,1.4E1,1.2E1,3E1,4E1,1.14E2,9.6E1,3.2E1,1.02E2,7.6E1,8.6E1,1.8E1,5E0,6E0,6E0,7E0,1.4E1,3.8E1,2.7E1,2.6E1,1.2E1,2E0,6E0,2E1],"tree_param":{"num_deleted":"0","num_feature":"8","num_nodes":"57","size_leaf_vector":"1"}},{"base_weights":[-2.4639037E-1,-9.453388E-1,6.3519216E0,1.2282314E0,-3.3901787E0,1.2257996E1,-6.065855E0,-8.6225325E-1,6.265644E0,-4.3326344E0,9.828095E0,-4.132865E0,1.3644705E1,-5.1327777E0,-2.4753524E-1,3.491373E0,-3.4781601E0,5.3788114E0,5.476875E-1,-3.0940685E0,-1.1390586E1,1.2487121E0,1.0709282E1,4.350384E-2,-6.154988E0,1.0457638E1,1.7235052E1,-6.4489913E0,-1.2658258E-1,-2.0137298E-1,2.087008E-1,1.4372706E-1,-2.0296767E-1,1.9154099E-1,-3.3627948E-1,-3.2808772E-1,-6.3054234E-2,-7.393897E-1,-2.0026278E-1,-3.3138786E-2,7.232918E-2,1.5542193E-1,3.6205304E-1,-7.6339595E-2,-3.009523E-1,5.6441313E-1,1.6304407E-1,1.697751E-1,5.81816E-1,-1.4366703E-1,-2.3284306E-1],"categories":[],"categories_nodes":[],"categories_segments":[],"categories_sizes":[],"default_left":[0,0,0,0,0,0,0,0,0,0,0,0,0,0,0,0,0,0,0,0,0,0,0,0,0,0,0,0,0,0,0,0,0,0,0,0,0,0,0,0,0,0,0,0,0,0,0,0,0,0,0],"id":25,"left_children":[1,3,5,7,9,11,13,15,17,19,21,23,25,27,-1,29,31,33,-1,35,37,39,41,-1,43,45,47,49,-1,-1,-1,-1,-1,-1,-1,-1,-1,-1,-1,-1,-1,-1,-1,-1,-1,-1,-1,-1,-1,-1,-1],"loss_changes":[1.0207482E4,1.0637539E4,1.5622499E4,1.1167874E4,1.1777677E4,3.32942E3,9.834448E1,8.553655E3,3.208872E3,7.6574863E3,4.6290918E2,1.4439954E2,1.3416367E3,3.4099976E1,0E0,1.0018063E4,1.2781689E4,4.9271387E3,0E0,5.8131367E3,8.0233594E3,2.1809566E1,3.657832E2,0E0,1.00440125E2,2.9616704E3,1.4146504E3,4.2279663E0,0E0,0E0,0E0,0E0,0E0,0E0,0E0,0E0,0E0,0E0,0E0,0E0,0E0,0E0,0E0,0E0,0E0,0E0,0E0,0E0,0E0,0E0,0E0],"parents":[2147483647,0,0,1,1,2,2,3,3,4,4,5,5,6,6,7,7,8,8,9,9,10,10,11,11,12,12,13,13,15,15,16,16,17,17,19,19,20,20,21,21,22,22,24,24,25,25,26,26,27,27],"right_children":[2,4,6,8,10,12,14,16,18,20,22,24,26,28,-1,30,32,34,-1,36,38,40,42,-1,44,46,48,50,-1,-1,-1,-1,-1,-1,-1,-1,-1,-1,-1,-1,-1,-1,-1,-1,-1,-1,-1,-1,-1,-1,-1],"split_conditions":[1.3280721E0,-2.7048686E-1,1.3638381E0,1.3638381E0,1.6784611E0,-1.2867233E0,2.7412395E0,7.372098E-2,-2.7174973E-1,6.598124E-1,6.2662834E-1,2.719013E0,2.719013E0,1.3485308E0,-2.4753524E-1,-9.400681E-1,-9.400681E-1,-3.856619E-1,5.476875E-1,-1.1160651E0,-4.7918636E-1,-4.0222117E-1,1.26169E0,4.350384E-2,-1.651269E-1,7.372098E-2,-4.7918636E-1,-9.73857E-2,-1.2658258E-1,-2.0137298E-1,2.087008E-1,1.4372706E-1,-2.0296767E-1,1.9154099E-1,-3.3627948E-1,-3.2808772E-1,-6.3054234E-2,-7.393897E-1,-2.0026278E-1,-3.3138786E-2,7.232918E-2,1.5542193E-1,3.6205304E-1,-7.6339595E-2,-3.009523E-1,5.6441313E-1,1.6304407E-1,1.697751E-1,5.81816E-1,-1.4366703E-1,-2.3284306E-1],"split_indices":[0,0,4,4,6,6,0,4,0,2,4,0,0,0,0,0,0,0,0,6,4,5,2,0,5,4,4,5,0,0,0,0,0,0,0,0,0,0,0,0,0,0,0,0,0,0,0,0,0,0,0],"split_type":[0,0,0,0,0,0,0,0,0,0,0,0,0,0,0,0,0,0,0,0,0,0,0,0,0,0,0,0,0,0,0,0,0,0,0,0,0,0,0,0,0,0,0,0,0,0,0,0,0,0,0],"sum_hessian":[2.211E3,2E3,2.11E2,1.059E3,9.41E2,1.43E2,6.8E1,7.49E2,3.1E2,8.79E2,6.2E1,1.1E1,1.32E2,5E1,1.8E1,2.81E2,4.68E2,2.9E2,2E1,7.49E2,1.3E2,6E0,5.6E1,3E0,8E0,7.2E1,6E1,1.8E1,3.2E1,7.1E1,2.1E2,1.33E2,3.35E2,2.74E2,1.6E1,8.3E1,6.66E2,3.3E1,9.7E1,2E0,4E0,1.2E1,4.4E1,5E0,3E0,2.6E1,4.6E1,1E1,5E1,1E1,8E0],"tree_param":{"num_deleted":"0","num_feature":"8","num_nodes":"51","size_leaf_vector":"1"}},{"base_weights":[1.7906529E-1,4.5421076E0,-9.413123E-1,-8.6066065E0,6.1495066E0,1.2749114E1,-1.5409878E0,-1.2576121E1,-2.715057E0,7.470836E0,-2.05345E0,-4.197185E0,2.9350842E1,-2.2576332E0,7.9600763E0,-2.337341E-1,-4.0456897E-1,-4.7967035E-2,-1.5716888E-1,8.539173E0,-5.3489294E0,-1.4620784E1,5.904687E0,-6.8406763E0,6.3431376E-1,5.907652E-1,1.3143622E0,-2.745625E0,4.61986E0,2.7983732E0,1.3727843E1,1.8863837E-1,5.609284E-1,-7.573159E-2,-2.7683595E-1,-2.7123195E-1,-5.336459E-1,-5.2822027E-3,3.7060487E-1,-2.3818794E-1,-1.0951148E-1,-5.333413E-2,7.996884E-2,-1.684677E-2,-1.291613E-1,2.589947E-1,-1.7755981E-1,6.5700198E-3,1.6361661E-1,5.3203917E-1,3.2794625E-1],"categories":[],"categories_nodes":[],"categories_segments":[],"categories_sizes":[],"default_left":[0,0,0,0,0,0,0,0,0,0,0,0,0,0,0,0,0,0,0,0,0,0,0,0,0,0,0,0,0,0,0,0,0,0,0,0,0,0,0,0,0,0,0,0,0,0,0,0,0,0,0],"id":26,"left_children":[1,3,5,7,9,11,13,15,17,19,21,23,25,27,29,-1,-1,-1,-1,31,33,35,37,39,41,-1,-1,43,45,47,49,-1,-1,-1,-1,-1,-1,-1,-1,-1,-1,-1,-1,-1,-1,-1,-1,-1,-1,-1,-1],"loss_changes":[1.0670446E4,9.479239E3,1.4280093E4,1.1117981E3,4.3291875E3,2.0660852E4,1.1354777E4,2.1139648E1,5.078192E1,4.7433438E3,5.687034E3,4.7690405E2,4.3052676E3,5.2113765E3,3.4448506E3,0E0,0E0,0E0,0E0,7.1318926E3,2.7252332E2,2.279878E2,1.3746533E3,5.515869E1,7.333574E1,0E0,0E0,4.9269326E3,4.4074E3,4.3032782E2,4.2236426E2,0E0,0E0,0E0,0E0,0E0,0E0,0E0,0E0,0E0,0E0,0E0,0E0,0E0,0E0,0E0,0E0,0E0,0E0,0E0,0E0],"parents":[2147483647,0,0,1,1,2,2,3,3,4,4,5,5,6,6,7,7,8,8,9,9,10,10,11,11,12,12,13,13,14,14,19,19,20,20,21,21,22,22,23,23,24,24,27,27,28,28,29,29,30,30],"right_children":[2,4,6,8,10,12,14,16,18,20,22,24,26,28,30,-1,-1,-1,-1,32,34,36,38,40,42,-1,-1,44,46,48,50,-1,-1,-1,-1,-1,-1,-1,-1,-1,-1,-1,-1,-1,-1,-1,-1,-1,-1,-1,-1],"split_conditions":[-8.0301464E-1,-1.2255796E0,-9.7394687E-1,-1.2993774E0,1.9955301E-1,3.7346753E-1,2.2879543E0,-1.5892215E0,-1.1683975E0,3.4988878E0,1.1664869E0,-6.3827884E-1,1.9847673E0,1.3280721E0,-6.576872E-1,-2.337341E-1,-4.0456897E-1,-4.7967035E-2,-1.5716888E-1,1.4849194E0,2.7412395E0,-1.9268295E-1,1.5001843E0,-1.0947329E0,-7.678107E-1,5.907652E-1,1.3143622E0,-2.7174973E-1,1.7606041E-1,-4.8787954E-1,-2.7048686E-1,1.8863837E-1,5.609284E-1,-7.573159E-2,-2.7683595E-1,-2.7123195E-1,-5.336459E-1,-5.2822027E-3,3.7060487E-1,-2.3818794E-1,-1.0951148E-1,-5.333413E-2,7.996884E-2,-1.684677E-2,-1.291613E-1,2.589947E-1,-1.7755981E-1,6.5700198E-3,1.6361661E-1,5.3203917E-1,3.2794625E-1],"split_indices":[1,7,7,7,2,1,6,1,0,7,6,1,1,0,0,0,0,0,0,7,0,6,6,6,0,0,0,0,6,7,0,0,0,0,0,0,0,0,0,0,0,0,0,0,0,0,0,0,0,0,0],"split_type":[0,0,0,0,0,0,0,0,0,0,0,0,0,0,0,0,0,0,0,0,0,0,0,0,0,0,0,0,0,0,0,0,0,0,0,0,0,0,0,0,0,0,0,0,0,0,0,0,0,0,0],"sum_hessian":[2.181E3,4.45E2,1.736E3,4.8E1,3.97E2,7.2E1,1.664E3,2.8E1,2E1,3.42E2,5.5E1,3.6E1,3.6E1,1.548E3,1.16E2,6E0,2.2E1,1.5E1,5E0,3.16E2,2.6E1,2.1E1,3.4E1,2.3E1,1.3E1,2.3E1,1.3E1,1.446E3,1.02E2,6.2E1,5.4E1,2.6E2,5.6E1,1.6E1,1E1,9E0,1.2E1,1.8E1,1.6E1,1.6E1,7E0,6E0,7E0,6.03E2,8.43E2,7.4E1,2.8E1,3.2E1,3E1,2E1,3.4E1],"tree_param":{"num_deleted":"0","num_feature":"8","num_nodes":"51","size_leaf_vector":"1"}},{"base_weights":[-1.4283156E-1,3.9514036E0,-1.2198036E0,-8.101652E0,5.2678733E0,-1.8231231E0,7.724945E0,-9.931534E0,4.80897E-2,6.381831E0,-2.8579805E0,3.6072807E0,-2.8069687E0,2.735791E0,1.33452425E1,-1.1340877E1,-2.2570409E-1,4.632117E0,1.1988176E1,-1.4622875E1,7.7055554E0,-1.0904406E0,2.881021E1,-9.969654E-1,-6.315842E0,1.3709859E0,6.64782E0,5.1799434E-1,3.317805E-1,-2.2338685E-1,-3.798589E-1,4.2296997E-1,1.0260918E-1,6.3951576E-1,2.954523E-1,-2.7021736E-1,-5.2175313E-1,-1.2523305E-3,3.6795738E-1,-2.6815304E-1,1.2021037E-1,5.247997E-1,9.3499184E-1,1.2401497E-1,-7.9372935E-2,-3.083135E-1,-8.9541465E-2,1.6309078E-1,-4.62183E-2,8.585058E-2,2.3293328E-1],"categories":[],"categories_nodes":[],"categories_segments":[],"categories_sizes":[],"default_left":[0,0,0,0,0,0,0,0,0,0,0,0,0,0,0,0,0,0,0,0,0,0,0,0,0,0,0,0,0,0,0,0,0,0,0,0,0,0,0,0,0,0,0,0,0,0,0,0,0,0,0],"id":27,"left_children":[1,3,5,7,9,11,13,15,-1,17,19,21,23,25,27,29,-1,31,33,35,37,39,41,43,45,47,49,-1,-1,-1,-1,-1,-1,-1,-1,-1,-1,-1,-1,-1,-1,-1,-1,-1,-1,-1,-1,-1,-1,-1,-1],"loss_changes":[9.590805E3,7.2306484E3,9.306929E3,8.150454E2,3.7204492E3,8.633209E3,3.0199087E3,4.3641357E1,0E0,3.4758896E3,6.3266216E3,2.9393705E4,8.675619E3,3.0589618E2,2.661836E2,1.8909668E1,0E0,3.1180688E3,1.4868232E3,2.1652588E2,9.542948E2,8.436819E3,4.947207E2,7.6500054E3,6.1052383E3,5.4102795E2,4.119586E1,0E0,0E0,0E0,0E0,0E0,0E0,0E0,0E0,0E0,0E0,0E0,0E0,0E0,0E0,0E0,0E0,0E0,0E0,0E0,0E0,0E0,0E0,0E0,0E0],"parents":[2147483647,0,0,1,1,2,2,3,3,4,4,5,5,6,6,7,7,9,9,10,10,11,11,12,12,13,13,14,14,15,15,17,17,18,18,19,19,20,20,21,21,22,22,23,23,24,24,25,25,26,26],"right_children":[2,4,6,8,10,12,14,16,-1,18,20,22,24,26,28,30,-1,32,34,36,38,40,42,44,46,48,50,-1,-1,-1,-1,-1,-1,-1,-1,-1,-1,-1,-1,-1,-1,-1,-1,-1,-1,-1,-1,-1,-1,-1,-1],"split_conditions":[-8.0301464E-1,-1.3293877E0,2.2879543E0,-9.3169236E-1,1.9955301E-1,-7.290369E-1,-6.576872E-1,-1.0431194E0,4.80897E-2,9.3778834E-2,1.1664869E0,1.005544E0,4.272011E-1,4.165193E0,-2.7048686E-1,-1.5892215E0,-2.2570409E-1,-9.667393E-1,1.4101456E-1,-1.9268295E-1,1.5001843E0,-1.1160651E0,-8.9889807E-1,-3.9702785E-1,2.3495758E-1,2.5561314E0,-5.546389E-1,5.1799434E-1,3.317805E-1,-2.2338685E-1,-3.798589E-1,4.2296997E-1,1.0260918E-1,6.3951576E-1,2.954523E-1,-2.7021736E-1,-5.2175313E-1,-1.2523305E-3,3.6795738E-1,-2.6815304E-1,1.2021037E-1,5.247997E-1,9.3499184E-1,1.2401497E-1,-7.9372935E-2,-3.083135E-1,-8.9541465E-2,1.6309078E-1,-4.62183E-2,8.585058E-2,2.3293328E-1],"split_indices":[1,6,6,1,2,6,0,0,0,6,6,1,1,6,0,1,0,6,6,6,6,6,0,0,2,6,5,0,0,0,0,0,0,0,0,0,0,0,0,0,0,0,0,0,0,0,0,0,0,0,0],"split_type":[0,0,0,0,0,0,0,0,0,0,0,0,0,0,0,0,0,0,0,0,0,0,0,0,0,0,0,0,0,0,0,0,0,0,0,0,0,0,0,0,0,0,0,0,0,0,0,0,0,0,0],"sum_hessian":[2.173E3,4.52E2,1.721E3,4.4E1,4.08E2,1.613E3,1.08E2,3.7E1,7E0,3.59E2,4.9E1,2.47E2,1.366E3,5.8E1,5E1,2.1E1,1.6E1,2.75E2,8.4E1,2.3E1,2.6E1,2.09E2,3.8E1,9.02E2,4.64E2,4.4E1,1.4E1,1.6E1,3.4E1,7E0,1.4E1,3E1,2.45E2,1.4E1,7E1,9E0,1.4E1,1E1,1.6E1,8.2E1,1.27E2,8E0,3E1,2.19E2,6.83E2,2.11E2,2.53E2,1.8E1,2.6E1,4E0,1E1],"tree_param":{"num_deleted":"0","num_feature":"8","num_nodes":"51","size_leaf_vector":"1"}},{"base_weights":[-3.301593E-1,3.1917377E0,-1.7571578E0,-8.222489E0,4.4447927E0,1.8679487E1,-2.5102115E0,-1.0495926E1,-1.854625E0,8.950124E0,2.8613856E0,9.005658E0,3.6989395E1,-3.2142363E0,7.691075E0,-4.080683E-1,-2.5778657E-1,-2.676212E0,8.614554E-2,1.0245335E1,-1.3772471E-1,-5.31464E0,3.4378176E0,2.5067508E-1,1.4565617E1,6.2530077E-1,1.2478821E0,-1.6407032E1,-2.7865222E0,3.1493871E0,1.3374451E1,-1.4380246E-1,-4.4116642E-2,2.1780065E-1,6.226349E-1,-2.2353083E-1,-6.0697094E-2,4.9322668E-1,6.6863395E-2,-5.263783E-2,6.673831E-2,4.8445758E-1,2.2958806E-1,-6.4549E-1,-1.0062769E-1,1.5727083E-1,-1.0011139E-1,1.8148245E-2,1.7924905E-1,5.1034904E-1,3.2575327E-1],"categories":[],"categories_nodes":[],"categories_segments":[],"categories_sizes":[],"default_left":[0,0,0,0,0,0,0,0,0,0,0,0,0,0,0,0,0,0,0,0,0,0,0,0,0,0,0,0,0,0,0,0,0,0,0,0,0,0,0,0,0,0,0,0,0,0,0,0,0,0,0],"id":28,"left_children":[1,3,5,7,9,11,13,15,17,19,21,23,25,27,29,-1,-1,31,-1,33,-1,35,37,39,41,-1,-1,43,45,47,49,-1,-1,-1,-1,-1,-1,-1,-1,-1,-1,-1,-1,-1,-1,-1,-1,-1,-1,-1,-1],"loss_changes":[1.0509408E4,8.661049E3,2.2947043E4,8.491499E2,3.855162E3,9.054613E3,1.0338016E4,1.4322363E2,7.3694725E1,2.5199463E3,1.9222915E3,1.7487327E3,4.7183008E2,7.538131E3,2.3584053E3,0E0,0E0,3.1240341E1,0E0,3.896456E3,0E0,1.7478107E2,5.9059727E3,6.327737E1,1.1715234E2,0E0,0E0,2.728833E3,5.77688E3,3.7743103E2,1.9047949E2,0E0,0E0,0E0,0E0,0E0,0E0,0E0,0E0,0E0,0E0,0E0,0E0,0E0,0E0,0E0,0E0,0E0,0E0,0E0,0E0],"parents":[2147483647,0,0,1,1,2,2,3,3,4,4,5,5,6,6,7,7,8,8,9,9,10,10,11,11,12,12,13,13,14,14,17,17,19,19,21,21,22,22,23,23,24,24,27,27,28,28,29,29,30,30],"right_children":[2,4,6,8,10,12,14,16,18,20,22,24,26,28,30,-1,-1,32,-1,34,-1,36,38,40,42,-1,-1,44,46,48,50,-1,-1,-1,-1,-1,-1,-1,-1,-1,-1,-1,-1,-1,-1,-1,-1,-1,-1,-1,-1],"split_conditions":[-5.301047E-1,-1.2255796E0,-9.7394687E-1,-9.210273E-1,1E0,1.8129613E0,2.2879543E0,-1.1683975E0,5.8002645E-1,3.0094404E0,-1.2867233E0,3.7346753E-1,1.9847673E0,-8.9889807E-1,-6.576872E-1,-4.080683E-1,-2.5778657E-1,-5.546389E-1,8.614554E-2,1.4657787E0,-1.3772471E-1,-3.9702785E-1,-9.667393E-1,-7.678107E-1,-6.892593E-1,6.2530077E-1,1.2478821E0,-7.840299E-2,-7.448284E-1,-4.8787954E-1,-2.7048686E-1,-1.4380246E-1,-4.4116642E-2,2.1780065E-1,6.226349E-1,-2.2353083E-1,-6.0697094E-2,4.9322668E-1,6.6863395E-2,-5.263783E-2,6.673831E-2,4.8445758E-1,2.2958806E-1,-6.4549E-1,-1.0062769E-1,1.5727083E-1,-1.0011139E-1,1.8148245E-2,1.7924905E-1,5.1034904E-1,3.2575327E-1],"split_indices":[1,7,7,6,3,1,6,0,5,7,6,1,1,0,0,0,0,5,0,7,0,0,6,0,0,0,0,6,7,7,0,0,0,0,0,0,0,0,0,0,0,0,0,0,0,0,0,0,0,0,0],"split_type":[0,0,0,0,0,0,0,0,0,0,0,0,0,0,0,0,0,0,0,0,0,0,0,0,0,0,0,0,0,0,0,0,0,0,0,0,0,0,0,0,0,0,0,0,0,0,0,0,0,0,0],"sum_hessian":[2.089E3,6.02E2,1.487E3,5.9E1,5.43E2,5.2E1,1.435E3,4.3E1,1.6E1,1.4E2,4.03E2,3.5E1,1.7E1,1.343E3,9.2E1,1.4E1,2.9E1,1.4E1,2E0,1.28E2,1.2E1,2.6E1,3.77E2,1.4E1,2.1E1,5E0,1.2E1,4.1E1,1.302E3,5.2E1,4E1,4E0,1E1,1.01E2,2.7E1,1.5E1,1.1E1,3.1E1,3.46E2,7E0,7E0,1.6E1,5E0,2.9E1,1.2E1,8.3E1,1.219E3,2.8E1,2.4E1,1.4E1,2.6E1],"tree_param":{"num_deleted":"0","num_feature":"8","num_nodes":"51","size_leaf_vector":"1"}},{"base_weights":[-6.7782804E-2,5.855575E0,-1.0015246E0,4.613466E-1,1.9303988E1,-1.7709469E0,5.7103033E0,-8.71596E0,3.7902963E0,1.1918331E0,1.2822478E1,-3.7047622E0,2.1939523E0,1.1644485E1,-6.245911E0,-1.1935815E1,-4.696275E0,5.9735103E0,-6.051942E0,1.8337678E0,1.4095142E1,4.1075614E-1,-5.6198564E0,4.4000573E0,-5.590092E0,7.5064545E0,1.7707176E1,-5.5660396E0,-2.3514402E-1,-3.7497637E-1,-1.9518918E-1,-6.547955E-2,-1.8863927E-1,-2.3862077E-1,2.0880224E-1,-4.573628E-1,-1.19135015E-1,-5.5974573E-3,9.249882E-2,4.4132534E-1,2.2259401E-1,-1.8171096E-1,7.814841E-2,-6.65781E-1,-1.484027E-1,1.0611398E-1,3.6432976E-1,-2.1583016E-1,-2.990592E-2,4.0918496E-1,7.708496E-2,5.7311714E-1,3.2293403E-1,-2.1106198E-1,-1.3457744E-1],"categories":[],"categories_nodes":[],"categories_segments":[],"categories_sizes":[],"default_left":[0,0,0,0,0,0,0,0,0,0,0,0,0,0,0,0,0,0,0,0,0,0,0,0,0,0,0,0,0,0,0,0,0,0,0,0,0,0,0,0,0,0,0,0,0,0,0,0,0,0,0,0,0,0,0],"id":29,"left_children":[1,3,5,7,9,11,13,15,17,-1,19,21,23,25,27,29,31,33,35,37,39,41,43,45,47,49,51,53,-1,-1,-1,-1,-1,-1,-1,-1,-1,-1,-1,-1,-1,-1,-1,-1,-1,-1,-1,-1,-1,-1,-1,-1,-1,-1,-1],"loss_changes":[1.2063198E4,2.1536605E4,9.739521E3,6.5403545E3,1.0742633E4,1.2973673E4,1.38371E4,6.8168555E2,3.409723E3,0E0,8.971582E2,8.963692E3,9.55529E3,3.1284707E3,2.6735352E1,1.3504395E1,9.430084E1,1.827874E3,4.9421533E2,2.0771126E1,1.3334082E2,5.153124E3,8.546631E3,2.850662E3,8.9917505E2,2.3569604E3,2.9860547E2,4.6207153E1,0E0,0E0,0E0,0E0,0E0,0E0,0E0,0E0,0E0,0E0,0E0,0E0,0E0,0E0,0E0,0E0,0E0,0E0,0E0,0E0,0E0,0E0,0E0,0E0,0E0,0E0,0E0],"parents":[2147483647,0,0,1,1,2,2,3,3,4,4,5,5,6,6,7,7,8,8,10,10,11,11,12,12,13,13,14,14,15,15,16,16,17,17,18,18,19,19,20,20,21,21,22,22,23,23,24,24,25,25,26,26,27,27],"right_children":[2,4,6,8,10,12,14,16,18,-1,20,22,24,26,28,30,32,34,36,38,40,42,44,46,48,50,52,54,-1,-1,-1,-1,-1,-1,-1,-1,-1,-1,-1,-1,-1,-1,-1,-1,-1,-1,-1,-1,-1,-1,-1,-1,-1,-1,-1],"split_conditions":[-9.282578E-1,-1.5001844E-1,1.3280721E0,-1.2255796E0,-2.8119799E-2,1.3638381E0,1.3638381E0,-1.2993774E0,-9.8591304E-1,1.1918331E0,-1.2219858E0,-3.938157E-1,9.1662437E-1,1.6250427E0,2.7412395E0,1.1219562E0,-1.1683975E0,-1.5427103E0,-6.421842E-1,-5.715742E-1,-6.892593E-1,-1.1160651E0,-4.7918636E-1,2.2910018E0,5.1356727E-1,1.3485308E0,7.663148E-1,1.3485308E0,-2.3514402E-1,-3.7497637E-1,-1.9518918E-1,-6.547955E-2,-1.8863927E-1,-2.3862077E-1,2.0880224E-1,-4.573628E-1,-1.19135015E-1,-5.5974573E-3,9.249882E-2,4.4132534E-1,2.2259401E-1,-1.8171096E-1,7.814841E-2,-6.65781E-1,-1.484027E-1,1.0611398E-1,3.6432976E-1,-2.1583016E-1,-2.990592E-2,4.0918496E-1,7.708496E-2,5.7311714E-1,3.2293403E-1,-2.1106198E-1,-1.3457744E-1],"split_indices":[7,6,0,7,6,4,4,7,7,0,7,6,0,7,0,5,0,6,6,5,0,6,4,6,6,0,5,0,0,0,0,0,0,0,0,0,0,0,0,0,0,0,0,0,0,0,0,0,0,0,0,0,0,0,0],"split_type":[0,0,0,0,0,0,0,0,0,0,0,0,0,0,0,0,0,0,0,0,0,0,0,0,0,0,0,0,0,0,0,0,0,0,0,0,0,0,0,0,0,0,0,0,0,0,0,0,0,0,0,0,0,0,0],"sum_hessian":[2.179E3,2.96E2,1.883E3,2.12E2,8.4E1,1.69E3,1.93E2,5.6E1,1.56E2,1.9E1,6.5E1,1.136E3,5.54E2,1.29E2,6.4E1,3E1,2.6E1,1.28E2,2.8E1,7E0,5.8E1,3.61E2,7.75E2,4.32E2,1.22E2,7.8E1,5.1E1,4.8E1,1.6E1,2.6E1,4E0,1.1E1,1.5E1,8E0,1.2E2,4E0,2.4E1,3E0,4E0,5.2E1,6E0,9.1E1,2.7E2,2.9E1,7.46E2,3.9E2,4.2E1,9E1,3.2E1,3.4E1,4.4E1,4.1E1,1E1,1.8E1,3E1],"tree_param":{"num_deleted":"0","num_feature":"8","num_nodes":"55","size_leaf_vector":"1"}},{"base_weights":[1.7223462E-1,3.3583784E0,-1.1764337E0,-8.722534E0,5.2852182E0,3.5010722E0,-3.174897E0,-5.576691E0,-1.7906578E1,1.4430922E0,7.0743623E0,1.21717826E-1,2.5104786E1,-4.4941583E0,4.8146076E0,-8.919977E0,-1.6412228E0,-3.2388335E-1,-8.700114E-1,1.46380415E1,-2.2963722E0,3.582115E0,9.438665E0,-9.654595E0,4.5914755E0,3.464692E1,1.2621309E1,-2.4555542E0,-9.162899E0,1.9097799E0,9.262566E0,-2.9492167E-1,-1.965735E-1,1.2994476E-1,-2.1498176E-1,4.8275074E-1,2.8424868E-1,1.3744809E-1,-2.0317413E-1,3.6870697E-1,7.426196E-2,1.7774601E-1,3.3432025E-1,-1.9280663E-1,-7.507797E-1,-1.6068947E-1,1.8904689E-1,6.350287E-1,1.1394076E0,-2.7395892E-1,6.0921764E-1,-9.025262E-2,2.3012935E-1,-5.262485E-1,-1.9457862E-1,3.4948897E-1,2.5304666E-2,4.0721747E-1,1.479172E-1],"categories":[],"categories_nodes":[],"categories_segments":[],"categories_sizes":[],"default_left":[0,0,0,0,0,0,0,0,0,0,0,0,0,0,0,0,0,0,0,0,0,0,0,0,0,0,0,0,0,0,0,0,0,0,0,0,0,0,0,0,0,0,0,0,0,0,0,0,0,0,0,0,0,0,0,0,0,0,0],"id":30,"left_children":[1,3,5,7,9,11,13,15,17,19,21,23,25,27,29,31,33,-1,-1,35,37,39,41,43,45,47,49,51,53,55,57,-1,-1,-1,-1,-1,-1,-1,-1,-1,-1,-1,-1,-1,-1,-1,-1,-1,-1,-1,-1,-1,-1,-1,-1,-1,-1,-1,-1],"loss_changes":[9.203938E3,1.4874177E4,1.4079592E4,2.4425972E3,3.7705566E3,3.292292E4,1.1141595E4,8.66906E2,1.422315E3,8.717814E3,3.062463E3,1.713015E4,6.8289688E3,8.600547E3,1.9203933E3,1.3208496E1,1.0869844E3,0E0,0E0,1.4023926E2,4.2795654E3,1.444101E3,1.2702422E3,5.9417275E3,4.6098726E3,7.237031E2,4.866891E3,3.5614072E3,6.0543027E3,9.4564124E2,1.0350005E3,0E0,0E0,0E0,0E0,0E0,0E0,0E0,0E0,0E0,0E0,0E0,0E0,0E0,0E0,0E0,0E0,0E0,0E0,0E0,0E0,0E0,0E0,0E0,0E0,0E0,0E0,0E0,0E0],"parents":[2147483647,0,0,1,1,2,2,3,3,4,4,5,5,6,6,7,7,8,8,9,9,10,10,11,11,12,12,13,13,14,14,15,15,16,16,19,19,20,20,21,21,22,22,23,23,24,24,25,25,26,26,27,27,28,28,29,29,30,30],"right_children":[2,4,6,8,10,12,14,16,18,20,22,24,26,28,30,32,34,-1,-1,36,38,40,42,44,46,48,50,52,54,56,58,-1,-1,-1,-1,-1,-1,-1,-1,-1,-1,-1,-1,-1,-1,-1,-1,-1,-1,-1,-1,-1,-1,-1,-1,-1,-1,-1,-1],"split_conditions":[-5.301047E-1,-4.7918636E-1,7.372098E-2,-2.2530179E-1,6.2662834E-1,1.8129613E0,1.5449265E0,-9.3169236E-1,-8.1644803E-1,-8.62584E-1,-6.855612E-1,-1.5255575E-1,-4.7918636E-1,6.265809E-1,1.3638381E0,-1.3587328E0,-8.0301464E-1,-3.2388335E-1,-8.700114E-1,-8.5462713E-1,1E0,-7.267513E-1,-4.699624E-1,1.5472816E-1,-1.2867233E0,-2.6070637E-1,-2.6070637E-1,1.0491594E0,2.1567747E-1,1.3828568E0,-3.9011467E-1,-2.9492167E-1,-1.965735E-1,1.2994476E-1,-2.1498176E-1,4.8275074E-1,2.8424868E-1,1.3744809E-1,-2.0317413E-1,3.6870697E-1,7.426196E-2,1.7774601E-1,3.3432025E-1,-1.9280663E-1,-7.507797E-1,-1.6068947E-1,1.8904689E-1,6.350287E-1,1.1394076E0,-2.7395892E-1,6.0921764E-1,-9.025262E-2,2.3012935E-1,-5.262485E-1,-1.9457862E-1,3.4948897E-1,2.5304666E-2,4.0721747E-1,1.479172E-1],"split_indices":[1,4,4,2,4,1,2,1,1,2,2,1,4,1,4,1,1,0,0,1,3,6,5,6,6,2,2,6,6,6,1,0,0,0,0,0,0,0,0,0,0,0,0,0,0,0,0,0,0,0,0,0,0,0,0,0,0,0,0],"split_type":[0,0,0,0,0,0,0,0,0,0,0,0,0,0,0,0,0,0,0,0,0,0,0,0,0,0,0,0,0,0,0,0,0,0,0,0,0,0,0,0,0,0,0,0,0,0,0,0,0,0,0,0,0,0,0,0,0,0,0],"sum_hessian":[2.14E3,6.36E2,1.504E3,8.7E1,5.49E2,4.5E2,1.054E3,6.6E1,2.1E1,1.75E2,3.74E2,3.9E2,6E1,9.05E2,1.49E2,3.5E1,3.1E1,1.4E1,7E0,3.8E1,1.37E2,1.52E2,2.22E2,1.22E2,2.68E2,3.3E1,2.7E1,6.31E2,2.74E2,9.1E1,5.8E1,2.3E1,1.2E1,1.5E1,1.6E1,2.8E1,1E1,5.4E1,8.3E1,1.6E1,1.36E2,7.4E1,1.48E2,1.02E2,2E1,3.9E1,2.29E2,8E0,2.5E1,7E0,2E1,5.99E2,3.2E1,6.5E1,2.09E2,8E0,8.3E1,2.8E1,3E1],"tree_param":{"num_deleted":"0","num_feature":"8","num_nodes":"59","size_leaf_vector":"1"}},{"base_weights":[-4.7127698E-2,3.6725478E0,-1.1600729E0,1.8601179E0,2.6679014E1,-2.0095105E0,5.749777E0,2.5031775E-1,1.1791692E1,1.0991393E0,1.0293931E1,-3.4846437E0,3.3715248E0,8.615909E0,-4.2471585E0,-3.7068242E-1,8.098354E-1,1.2473098E-1,1.2808018E1,1.4969927E-1,4.2933434E-1,-2.3067935E0,-7.717591E0,5.2338724E0,-1.2814552E1,1.0847761E1,-2.490476E-1,-4.967283E0,-2.6677918E0,-2.2951621E-1,2.7181864E-2,4.306653E-1,2.1420437E-1,-2.7036566E-1,-4.9637035E-2,-6.036728E-1,-1.6640727E-1,7.984477E-2,2.2791235E-1,-1.3164873E-1,-4.3573576E-1,1.663567E-1,5.1846665E-1,-1.03155375E-1,-1.9047447E-1,-6.016229E-2,-1.3946551E-1],"categories":[],"categories_nodes":[],"categories_segments":[],"categories_sizes":[],"default_left":[0,0,0,0,0,0,0,0,0,0,0,0,0,0,0,0,0,0,0,0,0,0,0,0,0,0,0,0,0,0,0,0,0,0,0,0,0,0,0,0,0,0,0,0,0,0,0],"id":31,"left_children":[1,3,5,7,9,11,13,15,17,-1,19,21,23,25,27,29,-1,-1,31,-1,-1,33,35,37,39,41,-1,43,45,-1,-1,-1,-1,-1,-1,-1,-1,-1,-1,-1,-1,-1,-1,-1,-1,-1,-1],"loss_changes":[8.879981E3,2.0548992E4,9.702076E3,7.33547E3,5.4972773E3,1.1688168E4,5.2227017E3,6.5868345E3,4.4330078E2,0E0,2.4819446E2,5.7407686E3,9.62275E3,5.413841E3,3.3379333E1,3.6132053E3,0E0,0E0,3.886748E2,0E0,0E0,3.9430444E3,6.647048E3,1.712314E3,4.1174805E2,4.169039E3,0E0,3.5207336E1,1.0360405E1,0E0,0E0,0E0,0E0,0E0,0E0,0E0,0E0,0E0,0E0,0E0,0E0,0E0,0E0,0E0,0E0,0E0,0E0],"parents":[2147483647,0,0,1,1,2,2,3,3,4,4,5,5,6,6,7,7,8,8,10,10,11,11,12,12,13,13,14,14,15,15,18,18,21,21,22,22,23,23,24,24,25,25,27,27,28,28],"right_children":[2,4,6,8,10,12,14,16,18,-1,20,22,24,26,28,30,-1,-1,32,-1,-1,34,36,38,40,42,-1,44,46,-1,-1,-1,-1,-1,-1,-1,-1,-1,-1,-1,-1,-1,-1,-1,-1,-1,-1],"split_conditions":[-7.249884E-1,1.9847673E0,1.3280721E0,4.2900008E-1,-2.8119799E-2,1.1664869E0,1.7606041E-1,-3.856619E-1,-1.1304393E0,1.0991393E0,-8.799548E-1,5.1356727E-1,1.6842836E0,3.4988878E0,2.719013E0,-1.2255796E0,8.098354E-1,1.2473098E-1,-6.892593E-1,1.4969927E-1,4.2933434E-1,-1.1160651E0,-3.9011467E-1,1.7180781E0,1.2487684E0,1.6250427E0,-2.490476E-1,-9.73857E-2,1.5284035E0,-2.2951621E-1,2.7181864E-2,4.306653E-1,2.1420437E-1,-2.7036566E-1,-4.9637035E-2,-6.036728E-1,-1.6640727E-1,7.984477E-2,2.2791235E-1,-1.3164873E-1,-4.3573576E-1,1.663567E-1,5.1846665E-1,-1.03155375E-1,-1.9047447E-1,-6.016229E-2,-1.3946551E-1],"split_indices":[7,1,0,6,6,6,6,0,5,0,0,6,1,7,0,7,0,0,0,0,0,6,1,6,6,7,0,5,5,0,0,0,0,0,0,0,0,0,0,0,0,0,0,0,0,0,0],"split_type":[0,0,0,0,0,0,0,0,0,0,0,0,0,0,0,0,0,0,0,0,0,0,0,0,0,0,0,0,0,0,0,0,0,0,0,0,0,0,0,0,0,0,0,0,0,0,0],"sum_hessian":[2.143E3,4.93E2,1.65E3,4.58E2,3.5E1,1.47E3,1.8E2,3.95E2,6.3E1,2.1E1,1.4E1,1.154E3,3.16E2,1.4E2,4E1,3.87E2,8E0,8E0,5.5E1,7E0,7E0,9.04E2,2.5E2,2.84E2,3.2E1,1.24E2,1.6E1,2.6E1,1.4E1,5.7E1,3.3E2,4.2E1,1.3E1,7.9E1,8.25E2,3.6E1,2.14E2,1.37E2,1.47E2,6E0,2.6E1,6.9E1,5.5E1,1.4E1,1.2E1,1.2E1,2E0],"tree_param":{"num_deleted":"0","num_feature":"8","num_nodes":"47","size_leaf_vector":"1"}},{"base_weights":[1.9477262E-1,3.0491953E0,-1.074864E0,-6.6721945E0,3.9800568E0,-3.5059152E0,9.935104E-1,-8.609776E0,-1.6067235E0,5.3636093E0,-2.3413143E0,-5.3919606E0,-4.1532388E-1,9.627141E0,-1.291013E0,-2.7505767E-1,-1.3757205E-1,2.5968845E0,-6.660393E0,3.8513265E0,9.893626E0,-1.3173656E1,4.8607173E0,-6.3848505E0,5.598781E0,2.2406106E0,-4.230855E0,4.4359903E0,3.1064238E1,-2.9170313E0,7.058973E0,1.1283908E-1,5.5068515E-2,-2.8686132E-2,-2.9674995E-1,1.5255705E-1,-1.389509E-1,2.1476184E-1,4.052112E-1,-8.343604E-1,-2.8664258E-1,7.222641E-2,2.3469038E-1,4.4377454E-2,-2.2318025E-1,1.0800472E-1,2.250959E-1,-1.0035821E-1,1.2445962E-1,-1.8172699E-1,-9.3131945E-2,1.7303346E-2,2.8917578E-1,1.0572338E0,6.349799E-1,1.5047626E-1,-1.360014E-1,8.17242E-2,3.6221066E-1],"categories":[],"categories_nodes":[],"categories_segments":[],"categories_sizes":[],"default_left":[0,0,0,0,0,0,0,0,0,0,0,0,0,0,0,0,0,0,0,0,0,0,0,0,0,0,0,0,0,0,0,0,0,0,0,0,0,0,0,0,0,0,0,0,0,0,0,0,0,0,0,0,0,0,0,0,0,0,0],"id":32,"left_children":[1,3,5,7,9,11,13,15,17,19,21,23,25,27,29,-1,-1,31,33,35,37,39,41,43,45,47,49,51,53,55,57,-1,-1,-1,-1,-1,-1,-1,-1,-1,-1,-1,-1,-1,-1,-1,-1,-1,-1,-1,-1,-1,-1,-1,-1,-1,-1,-1,-1],"loss_changes":[7.628341E3,5.890481E3,7.3297515E3,5.4560767E2,5.190161E3,3.9031875E3,1.55547295E4,5.0151855E1,3.7843823E2,3.2913213E3,8.411624E3,4.5753887E3,2.593599E3,1.822393E4,8.492782E3,0E0,0E0,1.960022E0,1.3799588E2,3.8545752E3,1.0990674E3,2.0121802E3,4.5352173E2,3.178788E3,1.0620471E2,1.6232528E3,1.9725464E2,2.6851953E3,5.7708984E2,6.728824E3,2.1843818E3,0E0,0E0,0E0,0E0,0E0,0E0,0E0,0E0,0E0,0E0,0E0,0E0,0E0,0E0,0E0,0E0,0E0,0E0,0E0,0E0,0E0,0E0,0E0,0E0,0E0,0E0,0E0,0E0],"parents":[2147483647,0,0,1,1,2,2,3,3,4,4,5,5,6,6,7,7,8,8,9,9,10,10,11,11,12,12,13,13,14,14,17,17,18,18,19,19,20,20,21,21,22,22,23,23,24,24,25,25,26,26,27,27,28,28,29,29,30,30],"right_children":[2,4,6,8,10,12,14,16,18,20,22,24,26,28,30,-1,-1,32,34,36,38,40,42,44,46,48,50,52,54,56,58,-1,-1,-1,-1,-1,-1,-1,-1,-1,-1,-1,-1,-1,-1,-1,-1,-1,-1,-1,-1,-1,-1,-1,-1,-1,-1,-1,-1],"split_conditions":[-5.301047E-1,-1.2867233E0,-2.6070637E-1,-3.9702785E-1,1.9955301E-1,9.961861E-1,8.449792E-3,1.1219562E0,-1.2146651E-1,9.3778834E-2,1.1664869E0,4.7775954E-1,-1.439235E-1,1.0592774E0,2.2879543E0,-2.7505767E-1,-1.3757205E-1,-4.699624E-1,-1.651269E-1,-2.6070637E-1,1.0583795E-1,-3.8848263E-1,1.5001843E0,-1.1800619E0,-7.2588295E-1,-1.1160651E0,-2.6673874E-1,-1.8082207E-1,-6.7435724E-1,-1.5449266E-1,-6.576872E-1,1.1283908E-1,5.5068515E-2,-2.8686132E-2,-2.9674995E-1,1.5255705E-1,-1.389509E-1,2.1476184E-1,4.052112E-1,-8.343604E-1,-2.8664258E-1,7.222641E-2,2.3469038E-1,4.4377454E-2,-2.2318025E-1,1.0800472E-1,2.250959E-1,-1.0035821E-1,1.2445962E-1,-1.8172699E-1,-9.3131945E-2,1.7303346E-2,2.8917578E-1,1.0572338E0,6.349799E-1,1.5047626E-1,-1.360014E-1,8.17242E-2,3.6221066E-1],"split_indices":[1,6,2,0,2,0,6,5,0,6,6,6,6,1,6,0,0,5,5,2,5,6,6,6,0,6,5,0,0,2,0,0,0,0,0,0,0,0,0,0,0,0,0,0,0,0,0,0,0,0,0,0,0,0,0,0,0,0,0],"split_type":[0,0,0,0,0,0,0,0,0,0,0,0,0,0,0,0,0,0,0,0,0,0,0,0,0,0,0,0,0,0,0,0,0,0,0,0,0,0,0,0,0,0,0,0,0,0,0,0,0,0,0,0,0,0,0,0,0,0,0],"sum_hessian":[2.103E3,6.47E2,1.456E3,5.6E1,5.91E2,6.69E2,7.87E2,4E1,1.6E1,4.85E2,1.06E2,4.15E2,2.54E2,1.64E2,6.23E2,3.4E1,6E0,9E0,7E0,3.65E2,1.2E2,4.2E1,6.4E1,3.81E2,3.4E1,1.5E2,1.04E2,1.33E2,3.1E1,5.22E2,1.01E2,2E0,7E0,3E0,4E0,3.19E2,4.6E1,7E1,5E1,7E0,3.5E1,3.6E1,2.8E1,4.5E1,3.36E2,1.8E1,1.6E1,3.8E1,1.12E2,3.8E1,6.6E1,7.7E1,5.6E1,2E1,1.1E1,8.8E1,4.34E2,5.5E1,4.6E1],"tree_param":{"num_deleted":"0","num_feature":"8","num_nodes":"59","size_leaf_vector":"1"}},{"base_weights":[2.3271833E-1,-2.8387272E-1,5.498617E0,-1.711691E0,3.380086E0,9.94557E0,-5.9208736E0,-2.241445E0,8.41505E0,7.988278E0,-1.9172617E0,-3.4087517E0,1.1819003E1,-4.94378E0,-2.4590611E-1,-6.8778026E-1,-4.3836927E0,3.1791868E1,-7.5464096E0,1.0799157E1,4.3439636E0,2.851216E0,-5.5697837E0,5.370615E-1,-2.5224453E-1,1.5751053E1,8.717346E0,-1.6504888E-1,-3.8326025E0,-2.1313055E-1,4.564687E-3,-1.9686867E-1,6.2752925E-2,1.0812126E0,3.987191E-1,-8.1359066E-2,-4.9169698E-1,2.2699523E-1,4.1486084E-1,1.4821269E-2,2.404238E-1,2.165434E-1,-1.03038006E-1,-2.1365236E-1,-8.048624E-2,9.578915E-2,-4.310221E-2,2.4112941E-1,5.083113E-1,4.03357E-1,1.9798921E-1,-5.0901785E-2,-1.3077833E-1],"categories":[],"categories_nodes":[],"categories_segments":[],"categories_sizes":[],"default_left":[0,0,0,0,0,0,0,0,0,0,0,0,0,0,0,0,0,0,0,0,0,0,0,0,0,0,0,0,0,0,0,0,0,0,0,0,0,0,0,0,0,0,0,0,0,0,0,0,0,0,0,0,0],"id":33,"left_children":[1,3,5,7,9,11,13,15,17,19,21,23,25,27,-1,29,31,33,35,37,39,41,43,45,-1,47,49,-1,51,-1,-1,-1,-1,-1,-1,-1,-1,-1,-1,-1,-1,-1,-1,-1,-1,-1,-1,-1,-1,-1,-1,-1,-1],"loss_changes":[5.9073677E3,1.0353627E4,9.910582E3,7.6581685E3,1.3563528E4,3.5428682E3,8.178894E1,4.5035503E3,2.6732012E4,2.9954766E3,4.526876E3,3.5959625E2,1.3627832E3,4.3291016E0,0E0,4.2372383E3,8.040842E3,1.8005E3,1.7939446E3,1.5308691E3,1.8470498E3,3.126587E3,6.395083E2,6.2252117E1,0E0,3.513838E2,6.221377E2,0E0,1.1727005E1,0E0,0E0,0E0,0E0,0E0,0E0,0E0,0E0,0E0,0E0,0E0,0E0,0E0,0E0,0E0,0E0,0E0,0E0,0E0,0E0,0E0,0E0,0E0,0E0],"parents":[2147483647,0,0,1,1,2,2,3,3,4,4,5,5,6,6,7,7,8,8,9,9,10,10,11,11,12,12,13,13,15,15,16,16,17,17,18,18,19,19,20,20,21,21,22,22,23,23,25,25,26,26,28,28],"right_children":[2,4,6,8,10,12,14,16,18,20,22,24,26,28,-1,30,32,34,36,38,40,42,44,46,-1,48,50,-1,52,-1,-1,-1,-1,-1,-1,-1,-1,-1,-1,-1,-1,-1,-1,-1,-1,-1,-1,-1,-1,-1,-1,-1,-1],"split_conditions":[1.3280721E0,1.3638381E0,1.3638381E0,1.9847673E0,-1.4265746E-1,-1.2867233E0,2.7412395E0,-1.06592044E-1,7.372098E-2,-2.7048686E-1,-3.9172375E-1,2.719013E0,-2.4980342E-1,1E0,-2.4590611E-1,-1.2867233E0,1.1664869E0,-2.8119799E-2,1.2487684E0,1.852028E-1,